tree
version=v4
num_class=1
num_tree_per_iteration=1
label_index=0
max_feature_idx=35
objective=regression
feature_names=unique_id warehouse total_orders sell_price_main type_0_discount type_1_discount type_2_discount type_3_discount type_4_discount type_5_discount type_6_discount holiday_name holiday shops_closed winter_school_holidays school_holidays product_unique_id name L1_category_name_en L2_category_name_en L3_category_name_en L4_category_name_en year quater month day month_name day_of_week week year_sin year_cos month_sin month_cos day_sin day_cos group
feature_infos=[0:5431] -1:6:4:5:0:1:3:2 [464:18475] [0.02:13252.940000000001] [-0.040320000000000002:0.82732000000000006] [0:0.33007999999999998] [0:0.65041000000000004] [0:0.25063000000000002] [0:0.44539000000000001] [0:0.66913999999999996] [-0.31570999999999999:0.90000000000000002] -1:0:19:22:24:3:8:16:31:12:2:14:13:15:23:10:27:4:36:35:25:28:34:26:11:6:21:30:29:18:9:17:32:7:5:33:1 [0:1] [0:1] [0:1] [0:1] [0:2669] -1:2520:411:2591:2609:1534:272:291:1865:2558:772:865:863:2525:335:2099:192:2059:798:1401:1482:492:1420:2069:130:275:854:1377:1443:1451:925:1389:1677:2286:661:868:1033:916:1229:1279:2533:1499:191:196:648:802:894:1545:2178:185:718:911:1099:1596:2641:889:18:678:927:1174:1287:1318:468:488:814:1319:1867:2214:248:1759:2298:155:1269:1847:2102:2309:428:1392:1874:2526:2570:1398:308:753:939:1060:1547:1103:1364:2587:220:873:807:1350:691:876:1399:1890:2511:2518:279:1069:2407:218:314:476:836:847:866:1048:1049:1312:1358:2469:563:874:1184:1486:2045:2453:504:826:860:1257:2194:2521:1913:1965:2105:2536:309:746:801:1225:1661:1821:2081:2371:839:864:1104:1211:1359:1487:1540:2388:2647:38:642:1180:1308:938:1183:2295:127:922:945:1539:2299:230:1361:1415:2443:2529:2530:351:674:695:764:881:1242:1554:2129:67:101:298:340:636:888:1072:1109:1853:213:325:1754:1755:1793:2598:258:848:1181:675:1258:238:732:1140:2512:269:311:852:914:970:1289:1711:231:267:959:1927:2450:93:290:735:1166:1480:1869:1960:2023:280:421:846:1945:2290:2419:119:562:1537:2476:669:1009:1053:1123:1538:1490:1925:2182:2292:1346:2034:83:1813:1917:274:1001:1386:2611:2621:442:950:882:982:1167:1179:2270:885:965:1385:803:961:1805:2574:1635:985:1122:1205:1515:184:1830:653:328:967:1028:1406:792:1557:1980:2580:2149:1212:1839:2003:0:1278:1551:1940:2004:2582:1823:2586:319:366:693:1529:2135:2534:306:455:1910:443:683:942:1626:2002:2049:2106:251:508:794:1646:2009:2091:2165:433:444:535:1371:1932:414:1526:1731:2605:1583:1615:1698:1702:664:677:1474:2321:320:475:1942:2163:2276:2432:2474:2537:245:1742:1817:2006:2285:224:261:463:525:1870:2551:2576:517:654:1555:1634:2296:2528:1356:1732:2190:2320:2567:1652:2158:719:1372:1659:2541:363:707:905:1592:1651:1864:2302:622:1680:2183:282:283:741:2375:2556:887:1709:1715:2012:2077:301:1665:1929:569:1753:2088:2159:2488:342:493:2035:2381:1734:2170:2173:2312:761:829:1007:1716:2217:399:1400:1582:1733:1954:2000:2187:561:1713:1788:2179:2549:1050:1558:1616:1924:401:577:680:1676:2136:980:1178:1586:165:395:571:1457:2161:544:2293:343:1013:2619:1684:1937:2253:649:907:929:2402:2566:575:1943:879:1256:2493:584:2366:179:297:321:1873:2519:1410:1579:2144:2606:10:1580:2264:2386:304:623:825:1213:1505:2416:1366:1562:601:1046:2317:679:827:978:150:633:1011:924:1697:1854:2287:692:1396:786:1017:1736:2111:1355:1687:1749:694:1724:1496:226:286:869:453:486:714:1614:2112:472:1131:744:470:1025:1424:2435:437:1700:1748:1911:2265:591:1395:1508:416:2156:400:498:227:940:1662:219:236:509:1118:565:402:1597:252:1270:1951:511:2200:609:758:506:593:717:2461:1339:2540:1771:1983:232:823:858:935:1345:1923:2454:2543:2395:2403:1548:2118:2632:1288:1599:1922:2460:552:576:1689:55:1283:339:360:1088:74:590:1931:2538:2221:2262:2553:189:467:849:2478:1828:1129:1227:285:791:2036:811:1568:1609:1757:2414:1380:1722:1956:570:2229:2595:51:2243:235:2568:2623:209:241:375:430:821:1655:2552:2638:208:921:2029:643:1348:2259:2279:211:755:1863:2148:59:896:934:1341:2143:805:926:962:1764:9:890:2152:2398:2463:524:966:2115:2257:2258:268:502:522:581:953:1092:1435:1621:29:484:489:812:1569:1685:1981:2507:1397:1710:1949:2564:299:780:948:1832:2019:2145:951:1594:1920:2345:194:256:264:452:203:2531:2620:110:214:503:520:526:819:919:1115:1836:2133:2261:2569:998:1068:2222:2281:639:891:1588:1723:1756:2532:139:249:418:426:438:542:572:928:1114:2479:2577:204:222:357:515:770:918:1347:1409:1546:2323:2545:2645:193:405:481:549:589:759:995:1494:1654:2278:199:436:501:574:724:737:1669:2539:2555:48:68:87:446:527:1194:1245:1589:1769:1849:2142:2227:2372:420:963:1730:1995:243:322:523:559:886:1282:1571:1750:2384:2610:216:237:253:424:580:832:870:1481:1501:1656:1968:47:228:960:1728:1915:2185:2559:187:389:419:477:1253:1254:1574:1591:1674:1859:2174:2266:2272:2313:2517:2524:2565:2594:247:281:315:459:466:541:543:596:1062:1163:1725:1745:1941:2010:2382:2554:460:494:513:628:877:883:1016:1182:1192:1232:1323:1452:1939:2392:2523:2560:2602:278:448:657:822:932:936:1244:1746:2107:2132:2154:2169:2201:2215:2263:221:242:431:441:536:557:586:621:954:958:1018:1251:1353:1438:1544:1747:2205:244:409:505:659:956:1301:1412:1478:1484:1608:1894:1930:1959:2177:2254:2274:2294:2310:2385:528:610:635:682:797:1531:1620:1695:1706:1758:2155:2515:43:80:202:289:347:352:403:551:607:706:1031:1315:1541:1559:1704:1950:2060:2127:2486:2636:239:254:408:531:566:613:748:804:835:996:1210:1241:1281:1518:1671:1737:1844:2236:2318:2607:151:336:370:440:478:496:500:534:631:670:843:1021:1388:1458:1649:1691:1935:2108:2131:2164:2247:2548:412:634:949:993:1502:1872:1947:1963:2128:2134:2150:2197:2319:246:266:329:396:796:1460:1678:2238:2289:2527:2604:310:457:479:554:617:640:853:913:1238:1262:1455:1593:1720:1952:1997:2090:2138:2522:2550:2635:170:316:598:599:626:690:736:818:1172:1277:1307:1407:1500:1607:1741:1784:1845:2005:2065:2192:2420:2592:102:326:327:435:474:553:579:603:946:1047:1058:1285:1417:1658:1835:2542:153:207:217:345:364:564:568:588:604:615:723:838:1164:1332:1403:1475:1601:1738:1876:1914:2103:2600:495:507:943:952:1020:1112:1391:1408:1633:1797:1955:1989:2058:2240:2563:12:76:215:462:616:752:789:809:1177:1476:1550:1560:1622:1627:1639:1660:1848:2024:2064:2239:2280:2409:2516:44:100:294:353:841:1014:1056:1193:1215:1252:1493:1522:1978:2050:2157:2193:2246:2475:2597:2651:334:397:605:624:763:1322:1381:1657:1727:1938:2126:2140:2308:2467:2513:28:378:608:632:785:840:947:1188:1320:1321:1378:1439:1611:1636:2191:2268:2288:2370:2399:2455:149:178:271:602:676:738:867:1260:1413:1553:1653:1683:1852:1871:1918:1936:2017:2300:2303:2413:2561:197:223:257:337:410:434:469:519:597:1268:1449:1509:1512:1565:1928:1977:2362:2431:2483:250:302:450:512:583:614:729:750:915:1292:1492:1585:1623:1718:1880:195:404:406:465:742:937:944:1073:1074:1264:1299:1472:1533:1617:1637:1964:2027:2055:2166:2588:273:338:394:483:529:538:540:687:734:795:923:1618:2160:454:671:765:971:1598:1603:1640:1787:1826:2181:2219:2220:2547:277:341:374:398:422:439:762:810:830:933:1089:1097:1108:1293:1360:1370:1454:1692:1735:1751:2110:2167:2184:2646:116:287:407:415:485:545:558:592:813:824:941:1191:1202:1326:1628:1666:2211:2428:2544:143:293:445:516:539:582:652:656:728:817:831:1051:1095:1387:1441:1536:1612:1613:1752:1953:2244:2297:2444:2502:2578:206:265:270:307:371:423:425:556:715:910:989:1038:1334:1535:1796:1921:1990:2614:107:288:295:644:767:842:851:884:892:988:1022:1030:1096:1173:1231:1328:1384:1414:1552:1739:1814:2213:2378:200:255:417:456:573:1120:1422:1542:1664:1770:1875:1975:2021:2096:2162:2212:2223:2344:530:567:1176:1344:1365:1390:1393:1504:1524:1575:1619:1789:1933:2095:2151:2389:2408:132:292:300:612:638:799:957:975:1067:1243:1404:1430:1810:1850:2037:2365:2390:2590:163:359:655:1026:1071:1561:1648:2186:2637:23:39:234:313:318:413:429:447:461:480:585:725:1171:1419:1450:1477:1525:1595:1605:1638:1961:1972:2250:2291:2473:2535:2639:75:376:537:619:625:800:1015:1379:1498:1650:1681:1957:2056:2062:2226:2411:157:350:518:620:651:730:837:895:908:981:1036:1201:1247:1271:1587:1926:2097:2171:2180:2224:2494:36:147:233:449:560:705:712:893:1124:1132:1143:1169:1248:1291:1577:1744:1944:1969:1979:2028:2053:2324:2433:471:491:510:618:627:658:689:793:1052:1459:1602:2415:2557:2579:2601:225:377:464:578:660:828:871:872:1032:1186:1354:1673:1825:1967:2051:2354:2490:91:284:482:497:547:587:1133:1157:1190:1296:1298:1300:1310:1464:1465:1606:1811:1868:1992:2054:2061:2072:2176:2189:2203:2230:2311:2424:2575:5:8:346:555:698:901:1208:1317:1510:1584:1827:1919:2084:2114:2146:2248:2249:2346:2447:2503:2583:37:92:324:344:548:611:703:768:855:904:976:1261:1309:1418:1421:1694:1851:2234:2343:2361:2422:2514:58:90:124:135:201:331:713:751:984:1039:1362:1688:1993:2260:2271:2275:2304:2430:22:94:182:361:532:629:711:749:754:1035:1055:1064:1324:1394:1426:1543:1705:1726:1766:1818:1897:1948:2048:2052:2092:2094:2209:2301:2391:2581:2644:2649:180:212:733:816:1003:1154:1249:1259:1273:1313:1643:1707:1721:1857:1958:1970:2040:2210:33:198:205:451:666:668:716:875:955:983:1019:1037:1063:1139:1161:1219:1340:1630:1803:1861:2245:2267:2284:2325:2471:2487:2589:2608:4:26:65:122:317:388:432:473:533:708:920:1102:1107:1145:1159:1207:1230:1316:1456:1467:1527:1549:1717:1855:1866:1976:2044:2101:2139:2141:2237:2510:1:2:427:688:704:994:1043:1061:1189:1196:1325:1368:1576:1625:1631:1834:1962:2241:2283:2464:134:186:229:305:392:499:514:646:745:850:857:859:1034:1091:1105:1311:1402:1416:1672:1768:1829:1837:1982:2007:2057:2068:2078:2082:2252:2255:2387:2505:2624:2643:2652:27:168:312:372:487:667:740:1138:1221:1223:1228:1303:1333:1556:1590:1816:1831:1842:1946:2031:2041:2098:2116:2124:2204:2232:2242:2421:2468:2498:16:34:210:380:458:663:930:1012:1090:1111:1265:1297:1352:1446:1448:1488:1521:1668:1699:1708:1719:1860:1971:2130:2269:2351:2546:2596:25:66:73:78:115:128:183:190:240:594:600:731:999:1125:1147:1220:1357:1367:1383:1440:1453:1572:1624:1647:1729:1807:1809:2079:2121:2315:2442:2448:79:490:820:906:1100:1156:1272:1275:1284:1462:1468:1573:1642:1815:1843:1934:2015:2228:2353:2423:2438:2456:2482:2491:2618:2628:50:118:158:161:358:595:834:986:1246:1306:1437:1675:1679:1690:1893:1898:1906:2125:2137:2198:2440:2495:2593:2626:2650:21:57:82:296:332:355:727:931:1045:1127:1149:1216:1295:1302:1338:1373:1411:1491:1530:1532:1581:1600:1903:2016:2032:2188:2199:2206:2273:2306:2348:2376:2396:2451:2452:2465:2466:2499:2504:62:77:159:260:367:630:990:1006:1081:1170:1175:1342:1503:1523:1682:1712:1794:1812:1840:1991:2038:2039:2122:2195:2380:2629:35:88:144:145:160:176:368:521:550:606:757:912:968:1008:1203:1226:1266:1305:1838:1974:2022:2025:2168:2175:2340:2418:2437:86:113:154:156:181:641:665:672:709:726:833:880:979:1113:1144:1146:1160:1276:1331:1351:1374:1463:1740:1791:1841:1883:1973:2074:2172:2322:2368:2377:2397:2410:2427:2434:2436:2472:2484:2648:112:121:137:142:166:169:175:263:303:739:743:974:1094:1101:1117:1165:1250:1483:1485:1495:1564:1641:1780:1786:1985:2314:2336:2342:2356:2426:2457:2501:13:14:30:56:64:72:84:97:148:354:681:776:902:909:1059:1198:1206:1214:1224:1234:1237:1274:1327:1337:1431:1470:1473:1517:1743:1765:1824:1878:2008:2013:2085:2235:2277:2316:2369:2383:2562:2642:15:95:108:120:125:136:171:323:393:662:710:806:808:1002:1066:1128:1235:1267 -1:1:0:2 -1:25:17:1:15:13:38:26:14:39:16:2:18:43:0:12:6:4:7:37:42:21:19:23:32:8:30:10:3:5:41:40:27:29:11:28:9:22:45:20:44:24:46:34:36:33:31 -1:23:107:46:37:112:29:120:113:93:104:115:98:32:161:130:119:105:54:68:65:159:33:38:94:47:49:73:111:97:36:157:171:39:163:25:132:10:76:45:31:62:109:4:102:43:41:82:81:56:141:40:135:124:103:6:129:60:1:57:126:95:110:61:166:127:16:59:160:66:0:44:108:118:142:148:71:114:164:22:165:133:50:2:101:3:162:48:125:123:96:79:99:149:13:139:52:24:137:167:117:9:51:78:21:12:147:77:30:151:128:150:53:19:7:83:58:11:158:8:69:89:42:152:35:75:131:63:27:17:143:74:55:170:18:175:122:168:174:155:169:116:138:106:5:173:85:154:86:26:140:121:134:20:34:14:172:146:153:156:91:145:136:28:100:80:70:144:15:84:72:64:88:87:92:67 -1:10:0:48:1:3:27:67:22:17:59:11:24:53:40:39:50:4:5:18:20:35:12:6:31:55:2:51:8:25:36:58:49:60:57:29:64:28:7:65:21:54:26:34:43:23:19:33:13:37:66:16:56:62:52:42:14:41:61:45:44:30:32:9:47:38:63:15 [2020:2024] [1:4] [1:12] [1:31] -1:7:0:2:4:10:9:1:11:8:3:5:6 -1:6:0:4:2:5:3:1 [1:53] [-1.3052658843417039e-12:1.5853745452423566e-14] none [-1:1] [-1:1] [-0.99871650717105276:0.99871650717105276] [-0.99486932339189504:1] [32:214]
tree_sizes=5784 5958 5769 5060 5897 5388 5506 5984 6435 4781 5357 7057 6126 7566 6276 5431 6667 9230 7473 6219 8686 6334 6870 7195 8089 5873 7712 7073 6893 5644 5207 7999 6427 7384 6492 6485 8827 6411 4736 4728 9935 6064 6926 6699 7035 5688 8584 7079 5745 7209 6926 6139 6641 7448 6160 5213 7963 7544 7786 5841 6373 7323 5464 6221 6425 4799 6190 6328 5683 4619 4068 7672 4810 4798 4532 6155 6818 4870 4203 4773 3818 6415 5337 6342 5728 5503 3547 5112 4746 4592 5319 5112 6825 5896 6254 4375 4582 7321 5384 3492 3366 4211 5278 3649 6139 4801 5662 4116 5158 4598 4639 6241 4659 5945 3281 3612 6297 5327 3218 7860 5162 3163 4387 7006 4911 3321 5454 4665 5303 5375 4513 7518 3373 4982 3889 5480 3116 3422 4821 7624 5169 5013 6203 6984 3259 5232 6273 5323 3069 5617 3468 4852 3367 5284 5039 3484 6077 4402 6871 3584 3329 5261 5003 4801 4823 5692 3649 6220 5059 3455 3659 5684 4420 4382 4968 6992 5632 3340 5849 4591 6604 3047 3815 3587 4905 3923 5511 3251 4769 5454 4128 5803 4276 5180 4861 5866 5586 7062 3783 5874 5893 5132 5434 3457 5671 6733 5613 4795 3788 5964 5070 4331 6573 3157 5557 3616 4990 6476 4451 5372 3513 4275 4528 4141 3282 3318 3129 3806 5690 4441 4971 4294 3783 3793 4964 7630 5747 5052 3421 4893 4036 6033 3121 3419 3482 4564 5421 4663 5552 4488 4841 4392 4908 4582 5932 6562 3532 3520 5936 3985 5192 4567 6323 4681 3756 4844 4963 3336 3517 3393 4764 4956 3850 4535 4015 5817 4166 3315 5164 6639 3864 6859 3440 4235 3706 3654 3477 3647 5574 4194 4299 6654 4693 4678 4817 5423 4519 3492 4621 4646 5462 4782 5075 5906 4198 4439 3085 3997 7350 3409 3321 5090 5277 4115 4843 6568 4948 4720 6077 3787 4966 5973 3910 4173 3396 6484 5634 4428 5733 4645 5981 6156 4223 3640 4087 3998 3196 4207 3147 3863 6737 4516 4983 3742 3986 5427 5365 4996 4230 4916 3878 4684 4860 4020 5747 5224 5640 4977 5641 8462 4297 3428 6935 3143 3454 3244 5279 6342 4038 3617 3855 4529 6282 3938 3307 5138 3813 3677 3827 3212 7428 6236 3136 5173 5306 5211 5164 3616 5377 5148 4575 4522 4036 4254 3343 3615 4949 6828 7310 5333 7646 3713 3640 4469 3008 3265 3785 4957 4664 3285 5219 3609 4784 5613 4625 3828 4019 4234 5496 5169 3369 4785 4700 5807 3205 3442 3315 5428 5931 3353 3242 6774 5195 3910 6046 5674 3580 5674 7852 3750 3661 3744 5537 5000 4032 5642 3429 4204 4579 4148 5645 6090 3284 2960 3496 4810 5171 4971 4064 4802 3978 4095 3270 4601 2946 3229 3276 3246 4286 3405 4770 3408 6938 6805 3658 5531 3578 3374 3330 3372 3349 4744 4030 3507 3904 6909 3379 3209 5135 3926 3288 3377 3628 6734 3850 4344 4891 3267 5331 4007

Tree=0
num_leaves=31
num_cat=16
split_feature=17 17 0 2 17 17 1 17 2 4 17 4 2 1 17 17 4 17 2 2 4 2 17 4 1 1 17 6 17 4
split_gain=2.44123e+11 7.04507e+10 5.57333e+10 1.42425e+10 1.36494e+10 1.2253e+10 5.9635e+09 5.894e+09 4.63913e+09 3.32011e+09 2.60981e+09 2.5443e+09 2.45798e+09 1.86158e+09 1.81677e+09 1.70617e+09 1.57151e+09 1.56624e+09 1.5062e+09 1.18667e+09 1.15139e+09 1.14891e+09 1.10573e+09 1.03553e+09 9.22845e+08 8.82043e+08 1.06787e+09 7.69319e+08 7.62731e+08 7.57441e+08
threshold=0 1 4868.5000000000009 8569.5000000000018 2 3 4 5 8356.5000000000018 0.21104000000000003 6 0.31789000000000006 5236.5000000000009 7 8 9 0.21288000000000004 10 10722.500000000002 7096.5000000000009 0.17302000000000003 9873.0000000000018 11 0.18579000000000004 12 13 14 0.19995000000000002 15 0.31789000000000006
decision_type=9 9 2 2 9 9 1 9 2 2 9 2 2 1 9 9 2 9 2 2 2 2 9 2 1 1 9 2 9 2
left_child=2 4 8 12 6 20 11 23 19 10 -9 17 -4 16 -12 -16 -6 -2 -5 -1 24 -10 -11 -7 27 26 -17 -3 -28 -8
right_child=1 5 3 18 13 7 29 9 21 22 14 -13 -14 -15 15 25 -18 -19 -20 -21 -22 -23 -24 -25 -26 -27 28 -29 -30 -31
leaf_value=1871.32253918882 387.76597417143404 190.21556613534273 744.93924247915709 1670.0887375983993 250.92738028780934 154.75120562621248 292.83796194205758 147.12233051962255 2864.2204079405451 222.23008924897317 135.02491229688593 960.64262253571667 1103.7500771256498 185.70532657160393 129.13542634063396 135.40997127012255 466.56577785302915 520.95064689415744 2381.3679465999207 2395.8093640720649 277.99314774089424 3632.1020972728734 136.47392333276161 256.60022645172501 148.85776398297753 93.753575154734108 127.70697454607416 392.61292442238113 98.977128963635181 559.8214224808886
leaf_weight=240 6094 41649 2053 738 28973 58427 13376 44716 434 6747 53693 432 1216 23341 68867 33767 1418 9244 142 614 4561 95 55018 4286 32116 1533130 37691 765 1892607 439
leaf_count=240 6094 41649 2053 738 28973 58427 13376 44716 434 6747 53693 432 1216 23341 68867 33767 1418 9244 142 614 4561 95 55018 4286 32116 1533130 37691 765 1892607 439
internal_value=108.311 106.45 1434.78 1070.67 288.4 102.531 397.516 100.904 2536.71 99.8808 99.1057 481.731 878.409 228.278 98.5124 97.9626 260.939 468.486 1784.86 2248.41 180.437 3002.12 145.865 161.703 174.477 97.3487 100.155 193.846 99.5382 301.182
internal_weight=0 3.95136e+06 5532 4149 83317 3.86804e+06 29585 3.78895e+06 1383 3.72624e+06 3.66447e+06 15770 3269 53732 3.61976e+06 3.56606e+06 30391 15338 880 854 79091 529 61765 62713 74530 3.4972e+06 1.96406e+06 42414 1.9303e+06 13815
internal_count=3956889 3951357 5532 4149 83317 3868040 29585 3788949 1383 3726236 3664471 15770 3269 53732 3619755 3566062 30391 15338 880 854 79091 529 61765 62713 74530 3497195 1964065 42414 1930298 13815
cat_boundaries=0 69 151 220 298 299 382 461 462 545 628 697 775 776 777 855 936
cat_threshold=0 0 0 0 0 0 0 0 0 0 0 0 0 0 0 0 0 0 0 0 0 0 0 0 0 0 0 0 0 0 0 0 0 0 0 0 0 0 0 0 0 0 0 0 0 0 0 0 0 0 0 0 0 0 0 0 0 0 0 0 0 0 0 0 0 0 0 0 130 0 0 0 0 0 0 4 16777216 516 0 0 16384 134217728 268435488 0 0 0 0 0 0 0 0 0 0 0 0 0 0 16777216 2048 285246464 0 0 0 0 0 0 0 8192 0 0 0 0 0 0 4096 0 0 0 0 0 0 150994944 0 512 0 0 0 0 0 0 0 0 0 65536 524288 4194304 2147493905 49232 0 0 0 0 0 0 0 0 0 0 0 0 268435456 0 0 0 0 0 0 0 0 4 0 0 0 0 32 0 0 0 0 0 0 0 0 0 0 0 0 0 0 0 0 1024 0 0 0 0 0 0 0 0 0 0 0 0 0 0 0 0 0 0 0 0 0 134217728 0 0 0 0 0 0 0 0 0 0 0 0 0 4194304 10240 16464 536870912 0 0 0 0 33554432 16 0 130 0 0 512 0 0 0 0 1048576 0 66112 0 0 0 2147483648 32 0 0 0 0 0 0 0 2076 0 0 0 8 0 134217728 0 2147483648 0 128 0 0 0 0 16384 0 545259520 0 0 0 4 0 0 0 0 0 0 0 0 0 0 0 0 1073741824 8912896 12615680 0 0 0 0 0 0 0 0 2097152 524288 19 4096 0 0 16777216 0 0 0 0 5120 0 4194304 0 0 0 0 0 0 0 0 0 256 0 0 2 0 1048576 0 0 0 0 0 0 33554432 0 0 0 0 75497472 67175424 1024 0 0 0 0 0 0 134217728 0 256 0 0 262144 0 0 0 0 0 2048 16 0 0 268435456 0 14680064 16777216 0 0 64 0 0 0 0 0 1048577 0 268435456 0 0 0 1073741824 0 536870912 4 0 0 0 0 0 0 1032 0 2064 0 0 0 0 0 0 1048576 0 603979776 0 0 0 0 0 16 0 16777216 0 0 64 67108864 0 0 0 0 0 0 0 1073741824 128 0 0 268435456 0 0 8388608 520 0 8192 0 0 268697600 0 67108864 0 0 0 0 0 0 0 0 536870912 537395200 1048576 0 0 2147483652 4096 512 0 0 33554432 0 0 0 0 0 32 16384 27 8388608 0 134217730 0 0 0 0 524288 32 0 0 0 256 524288 1073741824 0 0 0 0 0 0 0 134236160 0 0 0 0 0 0 0 0 268435456 512 0 0 0 32 0 1 0 0 0 4 0 0 0 2129920 0 0 131072 0 0 16384 131072 0 1048576 67108864 0 0 0 0 67174400 0 268435456 2048 0 0 0 0 0 0 0 0 262208 1 0 16777216 0 0 0 0 0 134217728 65536 0 0 2048 33554436 2097152 0 0 0 0 32768 4194304 0 0 0 0 512 0 0 2147483648 0 0 0 268435456 0 0 0 64 0 0 0 0 2 0 0 0 0 0 0 576 512 0 0 33554432 0 0 64 0 0 0 0 0 0 268435968 0 0 262144 0 0 0 0 0 2147483648 8192 0 0 8 0 0 0 0 536870912 32 604110848 0 8388608 0 2048 0 256 0 0 131072 0 0 0 0 0 0 0 0 4 0 0 0 0 0 0 0 0 0 0 0 0 0 0 0 0 0 0 0 0 0 0 0 0 0 0 0 0 0 0 0 0 0 0 0 0 0 0 0 0 0 0 0 0 0 0 0 0 0 0 0 0 0 0 0 0 0 4194304 2048 16 0 0 1024 2147483648 4 16777216 0 0 2048 2147483648 0 0 16 0 0 0 0 0 0 0 0 0 8192 1024 0 0 0 16 0 0 1048576 0 0 65536 1073741824 4 0 0 1 0 512 134217728 64 16 262144 8 0 0 0 0 0 0 0 0 0 0 0 0 8 0 4 536870912 0 1048576 2 1024 0 0 0 0 0 0 0 262656 0 0 805306368 32 27 27 0 8 0 0 0 0 2 128 1 0 0 67375104 0 0 0 268435456 0 0 131072 0 0 0 0 1032 0 16384 0 0 134217728 0 1078984704 33554432 0 0 0 4 0 0 0 0 0 134217728 16 0 0 1 1048576 0 16384 536870912 0 16384 32 0 0 0 0 0 0 0 0 0 0 0 1024 0 0 0 0 0 0 0 0 33554944 0 128 0 640 33554432 0 0 2147483648 0 0 0 0 8192 0 0 0 32 0 32 16777216 0 8192 0 0 131072 0 16785416 131072 0 0 0 0 0 33554432 0 0 64 0 0 0 0 0 0 524288 0 8 0 0 0 0 0 0 1 0 0 0 2048 0 0 0 0 1 8 0 0 0 0 0 131074 0 0 537001984 0 64 0 0 16 0 0 262144 268435712 0 8 1 2147483648
is_linear=0
shrinkage=1


Tree=1
num_leaves=31
num_cat=14
split_feature=17 17 0 2 17 17 17 2 1 4 2 2 4 17 4 17 17 35 17 35 2 17 17 4 6 17 2 6 4 17
split_gain=1.56239e+11 4.52523e+10 3.56693e+10 9.29456e+09 8.67066e+09 7.94856e+09 3.8604e+09 3.00288e+09 2.80046e+09 2.24129e+09 2.13615e+09 2.02087e+09 1.82941e+09 1.70875e+09 1.12659e+09 1.02254e+09 9.66294e+08 9.27117e+08 8.70981e+08 8.4524e+08 8.40136e+08 8.03302e+08 7.91213e+08 7.89055e+08 7.67324e+08 7.42533e+08 6.74428e+08 6.33313e+08 6.26674e+08 5.68412e+08
threshold=0 1 4868.5000000000009 9133.5000000000018 2 3 4 8452.5000000000018 5 0.20026500000000003 5420.5000000000009 6124.5000000000009 0.27993000000000007 6 0.25723500000000005 7 8 40.500000000000007 9 87.500000000000014 11332.500000000002 10 11 0.10785000000000002 0.11914500000000001 12 9924.5000000000018 0.19306000000000004 0.3003050000000001 13
decision_type=9 9 2 2 9 9 9 2 1 2 2 2 2 9 2 9 9 2 9 2 2 9 9 2 2 9 2 2 2 9
left_child=2 4 7 10 8 23 28 17 12 13 19 -6 16 -8 21 -15 -2 -1 -17 -4 -5 -13 -20 27 -18 -11 -9 -3 -7 -24
right_child=1 5 3 20 11 6 9 26 -10 25 -12 14 -14 15 -16 18 24 -19 22 -21 -22 -23 29 -25 -26 -27 -28 -29 -30 -31
leaf_value=1012.6290997405551 190.3549717859164 50.101864032219602 368.20229368631055 1367.8437138816671 70.91502296548633 39.402288992860925 29.355898072592723 2236.1623908547795 172.13345179665933 99.424627895937974 847.90373464408719 212.38089164727387 757.16176485211668 20.882298577598 347.97217400545458 17.347322906037309 319.02877772318902 1785.7763378789714 14.781595184491167 619.97482102697836 2081.6298590582769 119.32890221830843 12.247575306090557 133.61234644425832 705.46460728236616 21.992425295350429 2851.8547368893683 181.30357145409531 158.4023898593681 -9.4282537420610932
leaf_weight=67 2766 72789 883 607 32691 62189 49755 391 11042 5327 1238 4647 356 48498 1062 51965 9665 838 56300 1347 74 19366 49085 5163 210 69464 87 1502 1822 3395693
leaf_count=67 2766 72789 883 607 32691 62189 49755 391 11042 5327 1238 4647 356 48498 1062 51965 9665 838 56300 1347 74 19366 49085 5163 210 69464 87 1502 1822 3395693
internal_value=0 -1.48782 1061.18 769.886 145.706 -4.59997 -5.91247 1942.72 246.661 -6.74912 637.236 103.659 309.797 -7.45117 146.39 -7.95971 297.444 1728.54 -8.35346 520.282 1445.41 137.474 -8.73497 58.0014 326.916 27.5238 2348.22 52.7545 42.7828 -9.11936
internal_weight=0 3.95136e+06 5532 4149 81805 3.86955e+06 3.7901e+06 1383 24039 3.72609e+06 3468 57766 12997 3.6513e+06 25075 3.60154e+06 12641 905 3.55304e+06 2230 681 24013 3.50108e+06 79454 9875 74791 478 74291 64011 3.44478e+06
internal_count=3956889 3951357 5532 4149 81805 3869552 3790098 1383 24039 3726087 3468 57766 12997 3651296 25075 3601541 12641 905 3553043 2230 681 24013 3501078 79454 9875 74791 478 74291 64011 3444778
cat_boundaries=0 69 151 220 298 381 382 461 544 612 690 758 841 919 998
cat_threshold=0 0 0 0 0 0 0 0 0 0 0 0 0 0 0 0 0 0 0 0 0 0 0 0 0 0 0 0 0 0 0 0 0 0 0 0 0 0 0 0 0 0 0 0 0 0 0 0 0 0 0 0 0 0 0 0 0 0 0 0 0 0 0 0 0 0 0 0 130 0 0 0 0 0 0 4 16777216 516 0 0 16384 134217728 268435488 0 0 0 0 64 0 0 0 0 0 0 0 0 0 16777216 2048 285246464 2048 0 0 0 0 0 0 8192 0 0 0 0 0 0 0 0 0 0 0 0 0 150994944 0 0 0 0 0 0 0 0 0 0 0 65536 524288 4194304 2147493905 49232 0 0 0 0 0 0 0 0 0 0 0 0 268435456 0 0 0 0 0 0 0 0 0 0 0 0 0 32 0 0 0 0 0 0 0 0 0 0 0 0 0 0 0 0 1024 0 0 0 0 0 0 0 0 0 0 0 0 0 0 0 0 0 0 0 0 0 134217728 0 0 0 0 0 0 0 0 0 0 0 0 0 4194304 10240 16464 536870912 0 0 0 0 33554432 16 0 130 0 4194304 0 0 0 0 0 0 0 66048 0 0 0 2147483648 32 0 0 0 0 0 0 0 28 0 0 0 8 0 134217728 0 2147483648 0 128 0 0 0 4096 16384 0 545259520 0 0 0 4 0 512 0 0 0 0 0 0 0 0 0 0 1073741824 8912896 12615680 0 0 0 0 0 1 0 268435456 0 524288 4096 0 0 0 0 0 0 0 5136 0 0 512 0 0 0 0 1048576 0 0 0 256 0 0 2 0 1048576 0 0 0 0 0 0 33554432 0 0 0 0 75497472 66560 1024 0 0 0 0 0 8 134217728 0 256 0 0 262144 0 0 0 0 0 2048 16 0 0 268435456 0 14680064 16777216 0 0 64 0 0 0 0 0 1048576 0 0 2097152 0 0 1073741824 0 536870912 4 19 8388608 0 0 16777216 0 0 1032 0 2080 0 0 0 0 0 0 1048576 0 67108864 0 0 0 0 0 16 0 16777216 0 0 64 0 0 0 0 0 0 0 0 0 67108992 0 0 268435456 0 0 8388608 0 0 8192 0 131072 268697600 0 67108864 131072 0 1048576 0 0 0 0 0 536870912 537395200 1048576 0 0 2147483652 4096 0 0 0 33554432 0 0 0 0 0 32 16384 0 0 16777218 0 0 0 0 524288 0 0 0 0 256 524288 0 0 0 536870912 0 0 0 0 134236160 0 0 0 0 0 0 67108864 0 268435456 2 0 0 0 32 1073741824 1 0 0 0 4 33554432 0 512 2129920 0 0 0 0 0 16384 0 0 0 0 0 0 0 0 67174400 0 268435456 2048 0 0 0 512 0 0 0 0 393280 1 0 16777216 0 0 0 0 0 134217728 0 0 0 0 0 0 0 0 0 0 0 0 0 0 0 0 0 0 0 0 0 0 0 0 0 0 0 0 0 0 0 0 0 0 0 0 0 0 0 0 0 0 0 0 0 0 0 0 0 0 0 0 0 0 0 0 0 0 0 0 0 0 0 0 0 0 4194304 2048 0 0 134217728 65536 33554436 2097152 0 0 1 0 0 0 0 0 1073741824 0 0 0 0 2147483648 0 0 0 268435456 0 0 8 0 0 0 0 0 512 0 0 0 0 0 0 64 524800 67108864 0 0 0 0 64 0 0 536870912 0 0 0 268435456 0 0 67108864 0 0 0 0 0 2147483904 8192 0 0 0 0 0 0 0 536872960 0 536871424 0 8388736 8388608 1050752 0 0 0 0 0 0 0 0 516 0 0 0 0 0 0 0 0 0 0 0 0 0 0 0 0 0 0 0 0 0 285245440 0 0 0 0 0 0 0 0 0 0 0 0 0 0 0 0 0 0 0 0 0 0 0 0 0 0 0 0 0 0 0 0 0 0 0 0 1 65536 0 0 2048 0 134217728 0 0 0 0 32768 0 0 0 0 0 512 8192 0 0 0 0 0 0 0 0 0 64 0 0 4194304 33554432 0 0 0 0 0 0 268435456 134218240 0 0 0 0 0 0 0 0 16385 0 0 0 526368 512 0 0 262144 32 8 0 524288 0 0 0 0 0 8 65536 0 0 0 0 48 67108864 2147483648 0 0 512 0 256 8388608 0 131072 0 0 1024 0 4 0 0 0 2048 0 0 4194304 16 0 0 0 0 0 0 0 0 0 16384 268435456 0 0 0 16 0 0 1048576 0 0 65536 1073741824 4 0 268435456 67108993 0 0 0 64 0 262144 0 0 0 0 0 0 0 0 0 0 0 0 0 10 0 4 536870912 1572864 1056768 0 1024 0 0 0 0 0 0 0 262144 1 0 805306368 32 33554432 0 4096 4194304 16384 0 2 128 8192 0 0 71569408 0 0 0 0 0 0 2097152 0 131072 0 0 134349824 0 16384 0 0 134217728 0 1048576 0 0 0 0 128 4 0 0 0 0 134217760 0 0 0 134218752 67108864 0 0 0 0 0 0 0 4 0 0 131073 0 0 0 524288 0 0 131072 0 0 0 0 0 0 0 0 0 0 0 0 0 8
is_linear=0
shrinkage=0.2


Tree=2
num_leaves=31
num_cat=15
split_feature=17 17 0 2 17 17 2 2 17 17 4 4 4 35 2 2 2 17 20 17 2 2 6 4 17 17 17 1 1 17
split_gain=9.99927e+10 2.89696e+10 2.28284e+10 6.18952e+09 5.64233e+09 5.31826e+09 2.18836e+09 2.18562e+09 1.97736e+09 1.59137e+09 1.23722e+09 1.21657e+09 1.03977e+09 1.00623e+09 1e+09 8.6517e+08 8.33674e+08 8.23039e+08 8.16999e+08 9.08967e+08 7.90273e+08 7.51826e+08 6.52275e+08 5.79658e+08 5.45047e+08 4.92139e+08 5.91818e+08 4.92125e+08 4.77736e+08 4.70857e+08
threshold=0 1 4868.5000000000009 8169.0000000000009 2 3 7850.0000000000009 5976.0000000000009 4 5 0.21288000000000004 0.22245500000000004 0.21288000000000004 42.500000000000007 9978.5000000000018 6287.5000000000009 7261.5000000000009 6 7 8 9090.5000000000018 4936.5000000000009 0.18291000000000004 0.20039500000000002 9 10 11 12 13 14
decision_type=9 9 2 2 9 9 2 2 9 9 2 2 2 2 2 2 2 9 9 9 2 2 2 2 9 9 9 1 1 9
left_child=2 4 6 13 7 15 -1 17 -7 28 22 18 16 -4 -5 -3 -6 -2 -11 -20 -8 -15 24 -17 -9 -21 -27 29 -10 -13
right_child=1 5 3 14 12 8 20 10 9 11 -12 27 -14 21 -16 23 -18 -19 19 25 -22 -23 -24 -25 -26 26 -28 -29 -30 -31
leaf_value=1249.6413837072471 209.67058873092847 28.754978988748942 85.749243796754769 894.52772422131204 48.236102497289309 35.013042501946352 1640.1479118360037 251.67932268779379 46.027458508706687 -0.66358316350453628 502.53038840436648 111.77412247250807 205.06650797678205 414.23430420238333 1306.6407024651605 63.53323206394554 103.71146422657696 106.26448393362234 15.062555185053922 11.294643202837726 2077.5788218135917 618.80489140733914 565.25419839021845 173.78402411884679 171.19695841014857 9.5540078148506264 -9.2969708935256321 7.6836395296067526 10.215147376411052 33.355234158314836
leaf_weight=561 4119 48717 243 648 30561 49276 593 8578 28105 803086 668 3631 2319 1543 370 33415 16788 12614 67328 49542 229 1345 221 2023 5937 68341 2631684 33117 31741 19546
leaf_count=561 4119 48717 243 648 30561 49276 593 8578 28105 803086 668 3631 2319 1543 370 33415 16788 12614 67328 49542 229 1345 221 2023 5937 68341 2631684 33117 31741 19546
internal_value=0 -1.1898 848.94 615.908 116.582 -3.67987 1554.17 181.894 -4.78545 -5.31045 236.311 -5.83712 74.2945 476.619 1044.31 46.0451 67.9054 131.908 -6.29084 -7.89512 1762.01 509.507 224.243 69.827 219.051 -8.45733 -8.8198 23.3382 27.0383 45.6836
internal_weight=0 3.95136e+06 5532 4149 81805 3.86955e+06 1383 32137 3.7854e+06 3.73612e+06 15404 3.67628e+06 49668 3131 1018 84155 47349 16733 3.61998e+06 2.8169e+06 822 2888 14736 35438 14515 2.74957e+06 2.70002e+06 56294 59846 23177
internal_count=3956889 3951357 5532 4149 81805 3869552 1383 32137 3785397 3736121 15404 3676275 49668 3131 1018 84155 47349 16733 3619981 2816895 822 2888 14736 35438 14515 2749567 2700025 56294 59846 23177
cat_boundaries=0 69 151 220 298 380 463 532 538 621 690 773 852 853 854 937
cat_threshold=0 0 0 0 0 0 0 0 0 0 0 0 0 0 0 0 0 0 0 0 0 0 0 0 0 0 0 0 0 0 0 0 0 0 0 0 0 0 0 0 0 0 0 0 0 0 0 0 0 0 0 0 0 0 0 0 0 0 0 0 0 0 0 0 0 0 0 0 130 0 0 0 0 0 0 4 16777216 516 0 0 16384 134217728 268435488 0 0 0 0 64 0 0 0 0 0 0 0 0 0 16777216 2048 285246464 2048 0 0 0 0 0 0 8192 0 0 0 0 0 0 0 0 0 0 0 0 0 150994944 0 0 0 0 0 0 0 0 0 0 0 65536 524288 4194304 2147493905 49232 0 0 0 0 0 0 0 0 0 0 0 0 268435456 0 0 0 0 0 0 0 0 516 0 0 0 0 32 0 0 0 0 0 0 0 0 0 0 0 0 0 0 0 0 268469248 0 0 0 0 0 0 0 0 0 0 0 0 0 0 0 0 0 0 0 0 0 134217728 0 0 0 0 0 0 0 0 0 0 0 0 0 4194304 10240 16464 536870912 0 0 0 0 33554432 16 0 130 0 4194304 0 0 0 0 0 1048576 0 66048 0 0 0 2147483648 32 0 0 0 0 0 0 0 28 33554432 0 0 8 0 134217728 0 2147483648 0 128 0 0 0 4096 16384 0 545259520 0 0 0 0 0 512 0 0 2048 0 0 0 0 0 4194304 0 1073741824 8912896 8421376 0 0 0 0 0 0 0 0 0 524288 4096 0 0 16777216 0 0 8 0 7184 0 0 512 0 0 0 0 0 0 0 0 0 0 0 2 0 17825792 0 0 0 0 0 0 0 0 0 0 0 75497472 66560 1024 0 0 0 0 0 0 0 0 256 0 262144 262144 4 0 0 0 0 0 0 0 0 268435456 524288 10485760 16777216 0 0 4194368 0 0 0 0 0 1048577 0 268435456 2097152 0 0 0 0 536870912 8388608 0 0 0 0 0 1024 0 0 0 0 0 0 0 0 1048576 0 603979776 0 0 256 0 0 16 0 0 0 0 64 0 0 0 0 0 0 0 32 0 67108993 0 0 268435456 4 0 8388616 8 134217728 8192 0 0 268435456 0 0 0 0 0 0 0 16 0 0 0 0 1048576 0 0 2147483648 4096 512 0 0 33554432 0 262656 1 0 0 32 0 1073741824 0 0 4 0 0 0 0 0 0 0 0 0 0 0 0 0 0 0 0 0 0 0 0 0 0 0 0 0 0 0 0 0 0 1024 0 0 0 0 0 0 0 0 0 0 0 0 0 0 0 0 0 0 0 0 0 134217728 0 0 0 0 0 0 0 0 0 0 0 0 0 0 0 16 1073807360 403013728 537133312 3024545518 0 4160 0 0 0 65536 33554436 2097152 0 0 32 0 0 0 0 524288 1073741824 268435456 512 16 131072 0 0 0 134234112 268436480 0 0 0 0 0 67108864 0 0 0 0 0 4 0 1073741824 0 65536 524288 0 0 33554432 0 0 2129920 0 0 512 64 0 67125248 131072 0 1048576 0 0 0 0 524288 0 0 0 0 0 0 0 0 0 0 536870912 0 0 0 0 0 0 0 0 0 0 134217728 0 0 0 0 0 0 0 0 0 0 0 0 0 32 0 0 0 0 0 0 0 0 0 0 0 0 0 0 0 0 1024 0 0 0 0 0 0 0 0 0 0 0 0 0 0 0 0 0 0 0 0 0 134217728 0 0 0 0 0 0 0 0 0 0 0 0 0 0 8192 16464 0 0 0 0 16384 0 0 0 0 0 0 0 0 0 0 0 1073741824 8192 0 0 131080 0 8 8 0 0 0 0 0 0 8388608 0 0 0 0 0 0 0 16384 512 65536 201326592 0 2147483648 1026 0 0 0 1 0 0 16384 527360 0 4 0 0 0 8 1024 0 2147483648 0 0 131072 0 0 4 0 0 0 0 16 0 0 0 0 0 0 257 0 32 524288 0 0 0 2415919104 64 0 0 128 8192 0 0 0 1073741824 0 32 0 8192 32768 2097152 0 0 0 16785408 0 256 16384 0 16 134217728 33554432 0 0 0 0 0 129 0 536870912 0 131078 2048 0 0 0 0 0 67108864 1048576 16 0 0 0 0 0 0 0 0 0 0 0 0 0 0 0 1024 0 0 0 33558528 0 0 0 0 0 0 0 0 0 16777344 17 25 0 0 1024 2147483648 4 16777216 0 0 0 2147483648 0 0 16 0 0 0 0 0 0 0 0 0 8192 268436480 0 0 65536 0 0 0 1048576 0 0 65536 1073741824 4 0 0 0 0 512 134217728 16450 16 262144 0 0 0 0 0 0 0 0 0 0 0 0 8388608 8 0 12 536870912 1048576 0 2 0 0 0 0 0 0 0 32 0 0 0 805306368 0 0 0 0 0 131072
is_linear=0
shrinkage=0.2


Tree=3
num_leaves=31
num_cat=15
split_feature=17 17 0 17 2 17 1 17 2 4 35 4 17 35 35 1 17 4 0 1 17 17 1 4 2 6 26 2 4 1
split_gain=6.39953e+10 1.86089e+10 1.46101e+10 4.26812e+09 3.9746e+09 2.30632e+09 1.97514e+09 1.82372e+09 1.40925e+09 1.16974e+09 8.47526e+08 8.38091e+08 8.30469e+08 7.39667e+08 7.31266e+08 7.22481e+08 1.04657e+09 7.07611e+08 6.44942e+08 5.90697e+08 5.76344e+08 5.42074e+08 5.07258e+08 4.75334e+08 4.52884e+08 4.49344e+08 3.96995e+08 3.92237e+08 3.84903e+08 3.40763e+08
threshold=0 1 4868.5000000000009 2 8079.5000000000009 3 4 5 7619.5000000000009 0.16694500000000004 134.50000000000003 0.20282500000000003 6 91.500000000000014 144.50000000000003 7 8 0.13064000000000003 2150.5000000000005 9 10 11 12 0.10282000000000001 6052.0000000000009 0.25041000000000008 13 11726.000000000002 0.25947500000000007 14
decision_type=9 9 2 9 2 9 1 9 2 2 2 2 9 2 2 1 9 2 2 1 9 9 1 2 2 2 1 2 2 1
left_child=2 6 8 11 13 19 7 17 -1 12 -6 22 -7 -4 -10 16 -14 26 28 23 -18 -11 25 -5 -15 -3 -2 -12 -8 -23
right_child=1 3 4 5 10 9 18 -9 14 21 27 -13 15 24 -16 -17 20 -19 -20 -21 -22 29 -24 -25 -26 -27 -28 -29 -30 -31
leaf_value=948.27327994348786 142.89469428208858 52.150102088893384 255.49692757529954 45.085111344078754 628.55039003306422 21.292694348668643 122.40999776660593 106.57192943905996 1226.4446511593692 83.374742576824971 938.99439056858864 137.64219910314856 28.806348590178931 419.18019428184647 1581.7690743328012 -8.2209064943175338 21.613285985048915 386.75201969001216 58.169782656927509 16.14093221470845 -3.6490875884301093 31.917213202919886 19.965244491285208 139.40093518174911 711.93317850916844 205.35092706706439 222.77774492273625 1509.7330888856131 335.7390371586078 5.4312206618167016
leaf_weight=441 3784 39354 1192 29399 464 48606 5169 14287 531 4844 528 3767 41764 1670 411 1585595 36796 852 17774 44197 1949900 29817 27852 2305 242 781 8368 53 362 55784
leaf_count=441 3784 39354 1192 29399 464 48606 5169 14287 531 4844 528 3767 41764 1670 411 1585595 36796 852 17774 44197 1949900 29817 27852 2305 242 781 8368 53 362 55784
internal_value=0 -0.951327 679.152 -2.51462 492.727 -3.42031 119.55 156.102 1243.34 -4.11838 830.098 45.8094 -4.67324 379.147 1381.47 -5.0225 -2.52236 210.396 76.6967 31.0932 -3.18109 18.3507 40.7279 51.9258 456.234 55.1176 198.204 991.058 136.372 14.6596
internal_weight=0 3.95136e+06 5532 3.90076e+06 4149 3.82901e+06 50596 27291 1383 3.75311e+06 1045 71754 3.66266e+06 3104 942 3.61406e+06 2.02846e+06 13004 23305 75901 1.9867e+06 90445 67987 31704 1912 40135 12152 581 5531 85601
internal_count=3956889 3951357 5532 3900761 4149 3829007 50596 27291 1383 3753106 1045 71754 3662661 3104 942 3614055 2028460 13004 23305 75901 1986696 90445 67987 31704 1912 40135 12152 581 5531 85601
cat_boundaries=0 69 151 229 311 312 381 461 462 545 546 626 705 706 707 708
cat_threshold=0 0 0 0 0 0 0 0 0 0 0 0 0 0 0 0 0 0 0 0 0 0 0 0 0 0 0 0 0 0 0 0 0 0 0 0 0 0 0 0 0 0 0 0 0 0 0 0 0 0 0 0 0 0 0 0 0 0 0 0 0 0 0 0 0 0 0 0 130 0 0 0 0 0 0 0 0 516 0 0 0 134217728 32 0 0 0 0 0 0 0 0 0 0 0 0 0 0 0 2048 285246464 0 0 0 0 0 0 0 0 0 0 0 0 0 0 0 0 0 0 0 0 0 134217728 0 0 0 0 0 0 0 0 0 0 0 0 0 4194304 10241 49232 0 0 0 0 0 0 0 0 0 0 0 0 268435456 536870912 0 0 0 0 33554432 4 16777216 128 0 0 16384 0 268435456 0 0 0 0 65600 0 0 0 0 0 0 0 0 0 16777216 0 0 2076 0 0 0 8 0 134217728 8192 0 0 128 0 0 0 4096 0 0 545259520 0 0 0 16777216 0 512 0 0 0 0 0 0 0 0 0 65536 1074266112 524288 2155905040 0 0 0 0 0 0 0 0 0 524288 4096 0 0 0 0 0 16 0 5122 0 4194304 512 0 0 0 0 1048576 0 512 0 0 0 2147483648 34 0 1048576 0 0 0 0 0 0 33554432 0 0 0 0 75497472 1024 2147484672 0 0 0 0 0 0 16384 0 256 0 0 0 4 0 0 0 0 2048 0 0 0 268435456 0 4194304 0 0 8388608 4194304 0 0 0 0 0 1 1 268435456 2097152 0 0 0 0 536870912 27 0 0 0 0 0 0 0 0 4 0 0 0 0 32 0 0 0 0 0 0 0 0 0 0 0 0 0 0 0 0 1024 0 0 0 0 0 0 0 0 0 0 0 0 0 0 0 0 0 0 0 0 0 134217728 0 0 0 0 0 0 0 0 0 0 0 0 0 0 8192 16464 0 0 0 0 0 0 1032 0 2048 0 0 0 0 0 0 1048576 0 67108864 0 0 0 0 0 0 0 16777216 0 0 64 0 0 0 0 0 0 0 0 0 65536 0 0 0 0 0 8388608 520 134217728 8192 0 131072 262144 262144 0 0 0 0 0 0 16 0 0 536936448 537395200 10485760 16777216 0 2147483652 4160 0 0 0 33554432 0 1048576 0 0 0 0 16384 1073741824 27 0 8 0 16777216 0 0 0 0 32 0 0 0 0 0 0 0 0 0 0 0 256 0 16384 268435464 0 0 0 0 0 0 0 0 514 0 0 0 0 0 67108864 64 512 268435456 4 33554432 0 0 32768 0 0 0 0 0 32 268566528 0 1048576 67108864 0 0 0 0 67108864 0 1056768 2048 0 8 0 0 0 0 0 0 603979840 0 0 0 160 0 0 0 0 131072 25 8388608 0 134217728 0 134217732 0 2 128 0 0 32768 71565312 0 0 0 268435456 0 0 131072 0 0 0 0 0 0 0 0 0 0 0 1073741824 33554432 64 0 0 0 0 0 128 512 0 0 16 0 0 1 1048576 0 16384 536870912 0 0 0 0 0 0 262144 0 0 0 0 0 0 0 0 0 0 2 4 0 0 0 32 33816576 0 128 256 512 0 256 8388608 0 16 0 0 16777216 0 0 2064 0 0 4194304 16 0 0 0 0 0 0 0 256 0 16384 1024 1073741824 0 0 16 0 0 4194304 0 0 65536 1073741824 4 32 268435456 128 0 0 0 0 0 0 0 134217728 0 0 0 0 0 0 0 0 0 67108864 0 10 0 4 0 0 9437184 16777216 0 8 4096 0 0 0 0 0 262144 0 0 0 32 128 27 2146 17
is_linear=0
shrinkage=0.2


Tree=4
num_leaves=31
num_cat=15
split_feature=17 17 2 0 17 17 17 4 35 2 17 2 20 1 17 35 6 2 4 4 2 17 17 17 2 35 17 1 2 17
split_gain=4.09569e+10 1.208e+10 9.63089e+09 2.91776e+09 2.47023e+09 1.72146e+09 1.09627e+09 9.16518e+08 8.51666e+08 8.40062e+08 7.94201e+08 7.19468e+08 6.90488e+08 6.32258e+08 4.89217e+08 4.79535e+08 5.23143e+08 4.52576e+08 4.52431e+08 3.97131e+08 3.57837e+08 3.52824e+08 5.23081e+08 3.51772e+08 3.51577e+08 3.43989e+08 3.41932e+08 3.29591e+08 3.14981e+08 2.98728e+08
threshold=0 1 6587.0000000000009 4868.5000000000009 2 3 4 0.21288000000000004 92.500000000000014 8916.0000000000018 5 7619.5000000000009 6 7 8 111.50000000000001 0.077355000000000021 4385.5000000000009 0.064040000000000014 0.014100000000000001 11332.500000000002 9 10 11 8244.0000000000018 139.50000000000003 12 13 7537.5000000000009 14
decision_type=9 9 2 2 9 9 9 2 2 2 9 2 9 1 9 2 2 2 2 2 2 9 9 9 2 2 9 1 2 9
left_child=2 4 17 9 7 24 19 13 -5 25 28 -6 18 15 -14 -2 23 -1 27 -7 -10 -16 -23 -17 -3 -4 -24 29 -8 -12
right_child=1 5 3 8 11 6 10 -9 20 -11 12 -13 14 -15 21 16 -18 -19 -20 -21 -22 22 26 -25 -26 -27 -28 -29 -30 -31
leaf_value=189.9719487714234 196.00480614518858 22.67301616045653 856.42162800966696 359.31088576406802 37.470880660543308 18.625295841884867 9.6726629237427968 324.69191395616167 680.48197793458644 1349.4208831007463 22.5694741418449 86.452032549360922 13.723175809730069 83.705131181215364 10.611097430691729 24.978399473004064 443.09038007283954 353.59998930665984 21.580830823560316 76.122007337306357 1137.7785855679899 9.5073353771708948 8.7397784986024032 131.64331568945937 58.853478840992295 1095.2640710568896 -6.9271823377802981 -4.2694652846095495 40.827289672257621 2.1091731757029049
leaf_weight=1072 5326 47537 590 371 39775 56594 41587 911 912 274 30296 17175 52711 10663 51795 1562 194 1831 40378 5251 74 83587 57004 6293 13880 408 2466799 412140 18871 491028
leaf_count=1072 5326 47537 590 371 39775 56594 41587 911 912 274 30296 17175 52711 10663 51795 1562 194 1831 40378 5251 74 83587 57004 6293 13880 408 2466799 412140 18871 491028
internal_value=0 -0.760713 543.322 821.604 75.2456 -2.36962 -2.90538 127.732 617.612 1039.23 -3.34142 52.2335 -3.7144 120.321 -5.35481 149.338 118.645 293.177 0.853729 23.5033 714.802 -5.73303 -6.05774 110.632 30.8446 954.065 -6.57329 -0.0428356 19.3939 3.2986
internal_weight=0 3.95136e+06 5532 2629 81899 3.86946e+06 3.80804e+06 24949 1357 1272 3.7462e+06 56950 3.68574e+06 24038 2.7119e+06 13375 8049 2903 973842 61845 986 2.65918e+06 2.60739e+06 7855 61417 998 2.5238e+06 933464 60458 521324
internal_count=3956889 3951357 5532 2629 81899 3869458 3808041 24949 1357 1272 3746196 56950 3685738 24038 2711896 13375 8049 2903 973842 61845 986 2659185 2607390 7855 61417 998 2523803 933464 60458 521324
cat_boundaries=0 69 151 220 303 385 468 474 475 547 630 710 778 861 862 943
cat_threshold=0 0 0 0 0 0 0 0 0 0 0 0 0 0 0 0 0 0 0 0 0 0 0 0 0 0 0 0 0 0 0 0 0 0 0 0 0 0 0 0 0 0 0 0 0 0 0 0 0 0 0 0 0 0 0 0 0 0 0 0 0 0 0 0 0 0 0 0 130 0 0 0 0 0 0 4 16777216 516 0 0 16384 134217728 268435488 0 0 0 0 64 0 0 0 0 0 0 0 0 0 16777216 2048 285246464 12 0 0 0 0 0 0 0 0 0 0 0 0 0 0 0 0 0 0 0 0 134217728 0 0 0 0 0 0 0 0 0 0 0 65536 524288 4194304 8431633 49232 0 0 0 0 0 0 0 0 0 0 0 0 268435456 0 0 0 0 0 0 0 0 512 0 0 0 0 32 0 0 0 0 0 0 0 0 0 0 0 0 0 0 0 0 1024 0 0 0 0 0 0 0 0 0 0 0 0 0 0 0 0 0 0 0 0 0 134217728 0 0 0 0 0 0 0 0 0 0 0 0 0 4194304 10240 16464 536870912 0 0 0 0 33554432 0 0 130 0 0 512 0 0 0 0 1048576 0 66048 0 0 0 0 34 0 0 0 0 0 0 0 2064 0 0 0 8 0 134217728 8192 2147483648 0 128 0 0 0 4096 0 0 545259520 0 0 0 16777220 0 512 0 0 2048 0 0 0 0 0 4194304 0 1073741824 8912896 2147483648 0 0 0 0 0 1 0 268435456 0 0 0 0 0 0 4 4096 0 0 16777216 0 0 16 0 5136 0 4194304 0 0 0 0 0 0 536870912 0 0 0 0 2147483648 0 0 1048576 0 0 64 0 0 0 33554432 0 0 0 32 75497472 65537 1024 0 0 0 0 0 0 16384 0 256 0 262144 0 0 0 0 0 0 0 16 0 0 268435456 0 8388608 16777216 0 0 4194304 512 0 0 0 0 1048576 1 0 2097152 524288 0 0 0 536870912 0 0 2 0 0 0 1032 524288 2048 0 0 0 0 524288 0 0 0 0 0 0 256 0 2048 0 0 16777216 0 0 0 67108864 0 0 0 0 0 0 0 1073741824 67109888 0 0 134217728 0 0 8388608 8 134217728 8192 0 0 0 262144 67108864 0 0 0 0 0 0 0 0 0 2148007936 270532608 0 1024 0 4160 0 0 0 33554432 0 512 0 0 16777216 0 0 1073741824 0 0 134217728 1073807360 469860448 537133312 4101744326 0 4096 19 0 0 0 0 0 136314880 0 262144 32 536870912 0 0 0 0 1073741824 1048576 0 67108864 0 2147483648 0 0 134217736 268436496 0 0 8 64 0 0 0 0 0 0 0 4 0 0 0 0 34078720 0 8388608 0 263176 0 1048576 0 0 0 67108864 0 16384 131072 0 0 0 131104 8 64 0 0 0 0 0 0 0 0 0 0 0 2048 0 0 0 65536 33554688 0 0 67108864 0 256 0 0 0 0 0 0 512 268443664 0 256 0 0 24580 0 0 0 0 0 0 0 8388608 0 0 0 2048 0 0 0 0 0 65540 0 0 0 2 134217728 0 0 0 268435968 64 16384 2148008960 0 0 0 0 4 0 0 524288 0 0 0 0 0 0 4 0 0 0 536870912 0 0 0 0 0 0 0 0 128 0 256 0 0 0 0 0 64 0 0 0 0 16384 0 1073741824 32768 524320 268435456 1073741824 0 131072 0 0 0 524320 0 0 147456 0 16 0 0 0 0 0 0 0 0 0 536870912 544 0 0 0 64 2181038080 0 0 32768 0 528 8192 0 0 0 0 4194308 0 0 0 2 0 0 2147483648 0 0 139264 0 0 0 0 0 0 0 16 0 0 0 0 0 0 1 0 0 0 0 0 0 0 0 0 0 0 0 0 0 0 0 0 0 0 0 0 0 0 0 0 0 0 0 0 0 0 0 0 0 0 0 0 0 0 0 0 0 0 0 0 0 0 0 0 0 0 0 0 0 0 0 0 0 0 0 0 0 0 0 0 0 4194304 2048 0 0 0 0 64 0 0 0 8192 0 0 0 0 0 0 65536 8192 32768 2097152 0 131072 0 0 0 0 0 1 0 134217728 33554432 0 0 0 65536 0 2048 1073741824 256 0 0 2048 0 0 131072 0 1 1024 0 1 0 0 0 2099200 0 0 0 0 262144 0 0 0 0 0 0 1024 0 536870912 2 4096 0 0 0 0 0 0 0 0 0 16777344 256 0 32 268959744 27 8388608 8 134217728 0 0 0 0 0 0 0 32768 4096 0 0 0 0 0 0 0 0 0 0 16777216 0 0 0 0 0 0 0 0 0 514 0 0 0 0 16384 0 64 512 268435456 4 0 0 0 0 0 0 0 0 0 32 268435456 0 1048576 67108864 8388608 0 0 0 603979776 0 1056768 2048 0 2147491844 0 0 0 0 0 0 536870976 0 0 32768 2176 0 0 2147483648
is_linear=0
shrinkage=0.2


Tree=5
num_leaves=31
num_cat=16
split_feature=17 17 2 0 17 17 4 1 4 35 17 35 17 4 1 17 2 20 17 17 35 6 26 2 17 6 1 2 2 1
split_gain=2.62124e+10 7.97246e+09 6.17583e+09 1.90339e+09 1.73383e+09 1.03543e+09 8.67654e+08 7.68193e+08 7.498e+08 6.51814e+08 5.76239e+08 5.71003e+08 5.29354e+08 4.96696e+08 4.86249e+08 7.11592e+08 3.75665e+08 3.69111e+08 3.95447e+08 3.80901e+08 3.37063e+08 3.35628e+08 2.88557e+08 2.82362e+08 2.7316e+08 2.7225e+08 2.63145e+08 2.56269e+08 2.53284e+08 2.46196e+08
threshold=0 1 6442.5000000000009 4868.5000000000009 2 3 0.33389500000000005 4 0.25947500000000007 134.50000000000003 5 194.50000000000003 6 0.10065 7 8 7850.0000000000009 9 10 11 89.500000000000014 0.28614500000000004 12 8960.0000000000018 13 0.47478500000000007 14 7890.5000000000009 7724.5000000000009 15
decision_type=9 9 2 2 9 9 2 1 2 2 9 2 9 2 1 9 2 9 9 9 2 2 1 2 9 2 1 2 2 1
left_child=2 6 20 11 13 16 7 12 14 -5 29 23 22 21 15 -7 -6 -17 -19 -20 -1 26 -2 -4 -21 -24 -3 -8 -15 -10
right_child=1 4 3 9 5 8 27 -9 10 -11 -12 -13 -14 28 -16 17 -18 18 19 24 -22 -23 25 -25 -26 -27 -28 -29 -30 -31
leaf_value=139.30906912583856 77.832923436890582 35.260183006169505 734.79447174557185 354.88953412355698 11.526115168966607 26.385701667707021 203.16838892430781 50.97624788104315 41.426063862446249 628.31417337980201 14.666922172652143 1199.1922144052935 72.473252209916964 64.081799411325747 -5.4989945450226498 2.8928635211398244 41.624846340324126 16.855709721956682 14.721153090147983 12.241808369236843 282.31386901937134 161.26421125435698 149.24911693926464 996.9408457080325 -4.6563506797801759 763.01213968211209 8.3309666338062378 425.88542307693115 167.34741204777015 127.21149791694369
leaf_weight=1037 2918 35583 944 700 55418 37571 713 20094 2723 695 39835 147 10930 3295 1623293 579372 23672 38809 43988 39368 1810 724 9165 199 1354998 29 24546 291 1335 2687
leaf_count=1037 2918 35583 944 700 55418 37571 713 20094 2723 695 39835 147 10930 3295 1623293 579372 23672 38809 43988 39368 1810 724 9165 199 1354998 29 24546 291 1335 2687
internal_value=0 -0.608421 434.657 653.043 -1.56337 -2.11346 83.9041 79.6452 -2.58952 491.112 23.0017 828.154 104.579 30.7041 -2.901 -0.887075 20.5322 -1.38545 -3.06349 -3.60106 230.225 25.9042 133.467 780.435 -4.17917 151.021 24.2743 267.721 93.8571 84.1895
internal_weight=0 3.95136e+06 5532 2685 3.90722e+06 3.84173e+06 44140 43136 3.76264e+06 1395 45245 1290 23042 65483 3.7174e+06 2.09411e+06 79090 2.05654e+06 1.47716e+06 1.43835e+06 2847 60853 12112 1143 1.39437e+06 9194 60129 1004 4630 5410
internal_count=3956889 3951357 5532 2685 3907217 3841734 44140 43136 3762644 1395 45245 1290 23042 65483 3717399 2094106 79090 2056535 1477163 1438354 2847 60853 12112 1143 1394366 9194 60129 1004 4630 5410
cat_boundaries=0 69 151 225 308 309 391 460 461 544 550 633 712 713 796 797 798
cat_threshold=0 0 0 0 0 0 0 0 0 0 0 0 0 0 0 0 0 0 0 0 0 0 0 0 0 0 0 0 0 0 0 0 0 0 0 0 0 0 0 0 0 0 0 0 0 0 0 0 0 0 0 0 0 0 0 0 0 0 0 0 0 0 0 0 0 0 0 0 130 0 0 0 0 0 0 0 0 516 0 0 0 134217728 32 0 0 0 0 0 0 0 0 0 0 0 0 0 0 0 0 285246464 0 0 0 0 0 0 0 0 0 0 0 0 0 0 0 0 0 0 0 0 0 134217728 0 0 0 0 0 0 0 0 0 0 0 0 0 4194304 10241 16464 0 0 0 0 0 0 0 0 0 0 0 0 268435456 536870912 0 0 0 0 33554432 4 16777216 130 0 0 16384 0 268435456 0 0 0 0 576 0 0 0 0 0 0 0 0 0 16777216 2048 0 2076 0 0 0 8 0 0 8192 0 0 0 0 0 0 4096 0 0 0 0 0 0 16777216 0 512 0 0 2048 0 0 0 0 0 4194304 65536 1074266112 524288 2155905024 32768 0 0 0 0 1 4096 0 0 0 0 0 16 0 5136 0 0 512 0 0 0 0 1048576 0 0 0 0 0 2147483648 34 0 1048576 0 0 0 0 0 0 33554432 0 0 0 0 209715200 0 2147484672 0 128 0 0 0 0 16384 0 545259776 0 0 0 4 0 0 0 0 0 0 0 0 268435456 0 0 0 0 8388608 4194320 0 0 0 0 0 0 1 268435456 2097152 524288 0 0 0 0 4 27 0 0 0 0 0 0 1024 0 2048 2147483648 4194304 0 16 0 0 0 0 0 0 0 256 0 8192 1024 0 0 65536 0 0 0 0 0 0 65536 1073741824 4 32 0 1 0 0 134217728 64 0 262144 0 134217728 0 0 0 0 0 0 0 0 0 0 0 8200 0 12 0 1048576 1048576 0 0 0 0 0 0 0 0 32 262656 0 0 268435456 32 0 0 0 536870912 0 0 0 0 0 0 0 0 4 0 0 0 0 32 0 0 0 0 0 0 0 0 0 0 0 0 0 0 0 0 16778240 0 0 0 0 0 0 0 0 0 0 0 0 0 0 0 0 0 0 0 0 0 134217728 0 0 0 0 0 0 0 0 0 0 0 0 0 0 8192 16448 27 0 0 0 16777216 0 0 0 0 2080 0 4194304 4194304 0 0 0 0 0 0 0 0 0 0 0 8 0 0 0 0 0 0 0 0 0 0 0 0 0 0 67108864 64 0 268435456 0 33554432 8388608 8 134217728 0 0 0 0 0 32 131072 0 1048576 67108864 0 16 0 0 67108864 524288 9445376 2048 0 2147483652 4096 0 0 0 0 0 603979776 0 0 0 32 0 1073741824 0 0 131072 1107361792 1480687714 537141504 389783780 0 4096 0 0 2 0 0 0 8 524288 0 2147483904 2048 0 1073809408 0 0 0 8192 536870912 0 0 264 0 32 0 1073741824 16777216 0 0 0 0 0 0 0 0 0 4 0 1073741824 0 0 2048 0 0 0 0 0 32768 268435456 0 268435456 67174400 16384 0 0 4194304 0 2147483648 1 0 0 0 0 0 0 0 0 0 0 0 0 0 0 0 262208 0 0 0 0 0 256 0 0 134217728 0 0 0 0 0 0 0 64 8192 0 32768 4096 272 0 524320 268435456 0 0 131072 0 16 0 17301504 1024 0 0 0 16 0 100663296 0 0 0 32 2048 0 0 536870912 0 0 4 0 8388608 0 0 512 1088 0 512 0 0 0 2 0 0 0 0 8388608 0 0 0 2147483648 0 0 16777216 0 0 0 0 0 0 0 0 128 0 0 0 0 16777216 2082 33554433 0 0 4196352 0 134217728 0 0 0 0 0 0 0 524288 0 1114112 0 0 0 2147500032 0 0 8 16 0 16384 16392 0 134217728 0 0 0 0 69632 0 2048 32 268435456 268435968 134217728 0 0 0 0 0 0 0 0 0 0 0 0 2097152 0 0 0 0 0 8 0 0 0 0 0 0 0 512 0 0 65536 0 0 0 0 0 0 0 0 0 8193 128 0 268435456 27 96
is_linear=0
shrinkage=0.2


Tree=6
num_leaves=31
num_cat=16
split_feature=17 17 2 0 4 17 2 17 6 20 17 2 2 17 35 4 2 17 1 17 6 20 1 35 17 17 3 17 4 17
split_gain=1.67759e+10 5.1418e+09 4.00526e+09 1.18423e+09 8.42962e+08 1.03976e+09 8.36095e+08 6.22842e+08 5.71467e+08 4.99392e+08 4.89973e+08 4.82392e+08 4.1179e+08 4.09899e+08 4.54941e+08 3.72638e+08 3.05196e+08 2.94703e+08 2.70747e+08 2.65621e+08 2.5018e+08 2.47122e+08 2.47392e+08 2.28148e+08 2.27492e+08 2.32828e+08 2.1746e+08 3.70696e+08 2.1021e+08 2.17459e+08
threshold=0 1 6990.5000000000009 4883.5000000000009 0.054970000000000012 2 5526.5000000000009 3 0.16842500000000002 4 5 9591.0000000000018 10123.000000000002 6 119.50000000000001 0.43001000000000006 4100.5000000000009 7 8 9 0.38740500000000005 10 11 139.50000000000003 12 13 3.6850000000000005 14 0.11982000000000001 15
decision_type=9 9 2 2 2 9 2 9 2 9 9 2 2 9 2 2 2 9 1 9 2 9 1 2 9 9 2 9 2 9
left_child=2 6 16 12 8 18 13 15 9 17 -11 -5 23 14 -2 20 -1 -3 -6 -10 -8 22 -7 -4 -19 -26 27 -9 29 -28
right_child=1 4 3 11 5 21 7 26 19 10 -12 -13 -14 -15 -16 -17 -18 24 -20 -21 -22 -23 -24 -25 25 -27 28 -29 -30 -31
leaf_value=87.687207309100529 96.466487945594366 19.863028272938166 573.18114250183112 301.10449534373197 50.58980008034905 30.85857630485291 121.53278256619686 49.834209276343138 85.403942532277654 11.901495129868827 -3.9553142962080536 551.93020730821024 1169.6846402681792 13.322275516120294 15.037501543044378 409.27846674868937 232.43683396889344 13.756030835191858 127.91578968956956 21.678159370452523 531.77840515136722 1.7168408817472292 4.8359036544327916 753.89713149532201 11.964344652047508 -0.53634612295201312 -2.0015724086681228 153.96730163637608 165.31592466665887 59.704470239783191
leaf_weight=783 6536 34575 640 754 3877 33107 6606 2897 3721 80294 2656967 517 65 17546 4731 190 2277 53463 3472 8839 60 68216 26179 496 64060 853712 2664 2638 667 16340
leaf_count=783 6536 34575 640 754 3877 33107 6606 2897 3721 80294 2656967 517 65 17546 4731 190 2277 53463 3472 8839 60 68216 26179 496 64060 853712 2664 2638 667 16340
internal_value=0 -0.486488 347.726 537.694 -1.38903 14.1472 57.1849 79.414 -1.94688 -2.08979 -3.49013 403.132 680.099 32.4691 62.2193 132.903 195.398 1.72119 87.2463 40.6427 125.225 9.92631 19.3705 652.085 1.07516 0.336316 64.7864 99.8326 54.9581 51.0848
internal_weight=0 3.95136e+06 5532 2472 3.89048e+06 134851 60875 32062 3.75563e+06 3.74307e+06 2.73726e+06 1271 1201 28813 11267 6856 3060 1.00581e+06 7349 12560 6666 127502 59286 1136 971235 917772 25206 5535 19671 19004
internal_count=3956889 3951357 5532 2472 3890482 134851 60875 32062 3755631 3743071 2737261 1271 1201 28813 11267 6856 3060 1005810 7349 12560 6666 127502 59286 1136 971235 917772 25206 5535 19671 19004
cat_boundaries=0 69 151 233 302 308 389 458 534 535 613 619 620 699 782 796 878
cat_threshold=0 0 0 0 0 0 0 0 0 0 0 0 0 0 0 0 0 0 0 0 0 0 0 0 0 0 0 0 0 0 0 0 0 0 0 0 0 0 0 0 0 0 0 0 0 0 0 0 0 0 0 0 0 0 0 0 0 0 0 0 0 0 0 0 0 0 0 0 130 0 0 0 0 0 0 0 16777216 516 0 0 0 134217728 268435488 0 0 0 0 0 0 0 0 0 0 0 0 0 0 0 2048 285246464 12 0 0 0 0 0 0 0 0 0 0 0 0 0 0 0 0 0 0 0 0 134217728 0 0 0 0 0 0 0 0 0 0 0 0 0 4194304 10241 16464 0 0 0 0 0 0 0 0 0 0 0 0 268435456 0 0 0 0 0 33554432 16 0 2048 0 4194304 16384 16 0 0 0 0 0 64 0 0 0 0 0 1073741824 0 0 0 16777216 0 0 268435456 0 0 0 12 0 8388608 8320 0 0 128 0 0 0 0 134217728 0 8388608 0 0 0 16777216 0 0 0 67108864 0 16 0 0 268435456 0 1048576 0 524288 0 0 32768 0 0 0 0 262145 0 0 2097152 524320 0 0 0 536870912 0 0 0 0 0 0 0 0 0 0 0 0 0 0 0 0 0 0 0 0 0 0 0 0 0 0 0 0 0 0 16778240 8 0 0 0 0 0 0 0 0 0 0 0 0 0 0 0 0 0 0 0 0 134217728 0 0 0 0 0 0 0 0 0 0 0 0 0 0 8192 80 1107361792 134250864 537133312 3219645570 0 4096 0 0 0 0 134217732 0 16 786432 50 0 0 0 0 0 0 1048576 0 67108864 0 0 0 0 134217728 131072 0 17825792 0 0 16777216 67108864 0 268435456 0 0 0 0 0 134217728 8192 2148007936 0 41 0 0 0 0 0 0 256 0 0 0 67108864 0 0 0 0 0 0 0 0 0 0 0 65536 0 0 0 0 64 0 2048 32 0 0 0 0 0 0 1073741824 2147483648 0 0 0 0 0 0 0 0 512 0 0 0 0 0 0 0 0 0 0 0 0 0 0 0 0 0 0 0 0 0 268469248 0 0 0 0 0 0 0 0 0 0 0 0 0 0 0 0 0 0 0 0 0 134217728 0 0 0 0 0 0 0 0 0 0 0 0 0 0 1 16448 536870912 0 16777216 0 0 0 4 0 5120 0 0 0 0 0 0 0 1048576 0 66112 0 0 0 0 2 0 0 0 0 0 0 0 2064 0 0 0 0 0 0 1024 0 0 0 0 0 0 4096 0 0 545259520 0 0 0 16777220 0 512 0 0 2048 0 0 0 0 0 4194304 0 1073741824 8912896 2155905040 32768 0 0 0 0 1179648 0 268435456 102 1 0 0 32 134217728 33554432 29 0 10240 0 0 16384 0 0 0 0 0 0 0 0 0 0 0 0 0 0 0 0 150994944 0 0 0 0 0 0 8 0 1006632960 512 0 0 128 64 0 0 0 134217728 0 0 0 0 0 0 0 0 1024 0 0 0 64 0 0 0 0 1024 524288 0 0 0 0 0 0 0 603979776 0 128 2097152 32 1073741824 403701840 537133462 361728006 2150121600 4098 27 69632 0 0 0 0 0 1024 0 1 0 0 66048 0 0 0 0 0 0 0 0 0 0 0 32 0 0 0 0 0 0 0 0 33554432 0 0 0 0 0 65536 1024 0 0 0 0 8388608 0 2113536 0 0 537001984 268697600 262144 16384 268435456 0 0 0 0 0 0 0 65536 537395456 270532608 0 0 0 64 0 0 0 33554432 0 0 0 512 2097152 524288 16384 0 0 0 0 0 0 0 0 0 0 0 0 0 0 0 16777216 0 0 0 0 0 0 2147485696 0 0 0 0 0 0 0 4456448 33554432 512 0 0 0 0 75497472 0 0 0 128 0 0 0 512 64 0 0 0 0 0 0 0 8388608 0 0 0 0 0 0 603979776 2147483648 0 2 524288 0 4263936 544 0 0 0 0 64 16384 134217856 25165824 1048576 8 0 0 0 134217728 0 0 0 0 0 0 0 16777216 0 0 0 0 134217728 268435456 0 0 0 0 0 0 0 0 0 0 0 0 0 0 0 0 0 0 0 0 0 0 0 0 0 0 0 0 0 0 0 0 0 0 0 0 0 0 0 0 0 0 0 0 0 0 0 0 0 0 0 0 0 0 0 0 0 0 0 0 0 0 0 0 0 0 0 2049 0 0 0 0 0 0 0 0 0 0 0 0 0 268435456
is_linear=0
shrinkage=0.2


Tree=7
num_leaves=31
num_cat=16
split_feature=17 17 0 2 17 4 2 35 17 1 17 26 4 17 17 2 3 19 17 2 35 4 17 17 17 2 35 28 1 17
split_gain=1.07366e+10 3.32618e+09 2.63449e+09 8.78554e+08 8.45629e+08 4.55048e+08 4.22893e+08 4.11467e+08 4.02231e+08 3.96141e+08 8.24978e+08 3.58206e+08 3.36918e+08 3.16726e+08 2.86677e+08 2.63183e+08 2.56994e+08 2.80848e+08 2.37453e+08 2.2822e+08 2.24557e+08 2.17739e+08 2.14662e+08 2.16569e+08 2.37775e+08 2.00415e+08 1.89409e+08 1.72459e+08 1.71019e+08 1.70174e+08
threshold=0 1 4868.5000000000009 9379.0000000000018 2 0.30040500000000003 8205.5000000000018 41.500000000000007 3 4 5 6 0.31546000000000002 7 8 8545.5000000000018 4.495000000000001 9 10 3706.5000000000005 74.500000000000014 0.34669000000000005 11 12 13 10170.500000000002 138.50000000000003 50.500000000000007 14 15
decision_type=9 9 2 2 9 2 2 2 9 1 9 1 2 9 9 2 2 9 9 2 2 2 9 9 9 2 2 2 1 9
left_child=2 6 11 7 12 9 19 -4 28 10 -6 -1 15 -12 -15 -3 -8 -18 -16 -2 -21 -19 -20 -24 -25 -13 -9 -5 -7 -26
right_child=1 4 3 27 5 8 16 26 -10 -11 13 25 -14 14 18 -17 17 21 22 20 -22 -23 23 24 29 -27 -28 -29 -30 -31
leaf_value=364.64464253403344 -7.1325469720308581 13.578399086005929 -102.57536411156525 397.27767698914857 26.492857690495693 36.902707244172205 172.24936630973622 140.19790120033164 12.834079973603611 -3.8516076080799673 18.26030468096781 587.05814224360699 119.12554780405748 16.564568071192532 15.373645849447318 47.266948372203387 61.715766688354897 129.95738945974821 14.32630705221796 87.198841768867453 42.425532104785312 360.89177342607678 13.67962492524677 13.10090623849263 12.246780101843484 975.55865213494553 237.92431615299407 881.6199956094066 112.71132249725252 -2.4080261509598824
leaf_weight=547 2775 52293 222 572 46888 2399 1506 2016 29351 1664710 36031 779 1389 37970 34923 11276 6124 1518 34723 5940 18239 183 36710 41751 32238 57 1308 31 2421 1849999
leaf_count=547 2775 52293 222 572 46888 2399 1506 2016 29351 1664710 36031 779 1389 37970 34923 11276 6124 1518 34723 5940 18239 183 36710 41751 32238 57 1308 31 2421 1849999
internal_value=0 -0.388861 278.181 198.999 -0.947564 -1.32938 59.8776 161.047 21.6476 -1.53514 0.257448 517.738 21.6799 -0.327239 -0.65113 19.5541 96.591 82.0298 -0.973165 47.1903 53.4249 153.897 -1.25934 -1.53542 -1.8258 606.294 178.653 422.178 75.1345 -2.15696
internal_weight=0 3.95136e+06 5532 4149 3.91507e+06 3.85011e+06 36285 3546 34171 3.81594e+06 2.15123e+06 1383 64958 2.10434e+06 2.06831e+06 63569 9331 7825 2.03034e+06 26954 24179 1701 1.99542e+06 1.9607e+06 1.92399e+06 836 3324 603 4820 1.88224e+06
internal_count=3956889 3951357 5532 4149 3915072 3850114 36285 3546 34171 3815943 2151233 1383 64958 2104345 2068314 63569 9331 7825 2030344 26954 24179 1701 1995421 1960698 1923988 836 3324 603 4820 1882237
cat_boundaries=0 69 138 221 304 305 385 386 454 533 534 617 697 780 862 863 939
cat_threshold=0 0 0 0 0 0 0 0 0 0 0 0 0 0 0 0 0 0 0 0 0 0 0 0 0 0 0 0 0 0 0 0 0 0 0 0 0 0 0 0 0 0 0 0 0 0 0 0 0 0 0 0 0 0 0 0 0 0 0 0 0 0 0 0 0 0 0 0 130 0 0 0 0 0 0 0 0 516 0 0 0 0 32 0 0 0 0 0 0 0 0 0 0 0 0 0 0 0 0 268469248 0 0 0 0 0 0 0 0 0 0 0 0 0 0 0 0 0 0 0 0 0 134217728 0 0 0 0 0 0 0 0 0 0 0 0 0 4194304 10241 16464 0 0 0 0 0 33554432 4 16777216 2 0 0 16896 134217728 268435456 0 0 1048576 0 64 0 0 0 0 0 0 0 0 0 16777216 2048 16777216 2076 0 0 0 0 0 0 8192 0 0 0 0 0 0 4096 0 0 8388608 0 0 0 16777216 0 0 0 0 0 0 0 0 0 0 0 65536 524288 524288 8421376 32768 0 0 0 0 1 1 268435456 0 0 0 0 0 268435456 4 0 0 0 0 0 0 0 0 2048 0 4194304 0 16 0 0 0 0 0 0 0 256 0 0 268435456 0 0 0 16 0 0 0 0 0 0 1073741824 12 0 0 1 0 0 134217856 16388 16 262144 0 134217728 0 0 0 0 0 0 0 0 0 2147483648 0 0 0 0 872415232 0 0 0 0 0 0 0 0 0 0 0 33554944 262144 0 270532608 20512 0 0 0 536870912 134217984 27 536870912 0 0 16777216 0 0 16 0 6176 0 4194304 0 0 0 0 0 0 0 0 0 0 0 0 40 0 0 0 0 0 0 0 0 33554432 0 0 0 0 209715200 0 2147484736 0 268435584 0 0 8388608 8 16384 0 0 0 0 0 0 131072 0 0 67108864 0 16 0 0 268435456 524288 8388608 0 0 8388612 4096 0 0 0 0 0 0 0 0 2097152 0 0 1073741824 2658 8388608 0 0 0 0 0 0 0 0 0 2048 67108928 0 0 0 0 0 0 0 0 0 0 2147500032 268435456 0 0 0 0 0 0 1074790400 0 2 0 0 9 0 0 67108993 2560 512 0 0 0 0 1 671088640 0 0 0 2097152 0 32 0 0 1048576 262144 0 0 0 0 67108864 0 8192 0 0 2147483656 537002016 0 24 0 0 260 0 2 128 0 0 0 4194304 65568 0 0 0 0 67108864 0 0 256 0 0 0 0 1048576 0 0 0 0 262144 0 512 0 0 0 0 0 0 0 0 0 20 33554432 8 0 0 8192 16640 0 1048576 0 0 0 4194304 0 0 0 0 0 0 536870912 0 1048576 1024 0 0 0 0 0 0 2097152 32 536870912 8 2147483648 0 0 16384 139264 0 0 0 268435456 0 0 1024 16384 0 256 0 262144 0 0 0 0 0 0 0 0 8 0 0 131074 0 0 0 0 0 0 0 33554432 0 0 0 4096 0 0 0 0 0 8 0 0 0 0 1048576 269484032 16 0 0 262144 0 268435456 0 0 2097152 0 0 64 0 0 0 4194304 2048 1073741824 0 2149580864 0 0 0 0 0 67108864 16777216 262152 0 544 0 0 0 0 131072 65536 0 262144 2147483648 0 0 0 0 1040 0 0 0 1073741824 0 0 16777216 0 536870912 0 0 0 0 8196 0 0 0 0 0 0 0 0 0 64 131072 0 0 0 1073758208 0 0 0 1 0 0 0 0 0 0 0 805306368 0 16384 4 512 512 0 0 1 0 0 0 0 0 2097152 0 0 8192 0 4 64 0 0 0 33554432 0 0 32768 2176 8 256 0 64 2 0 0 0 0 0 128 2147483648 0 0 0 0 0 8192 8192 0 197120 0 0 0 32 0 0 0 0 0 0 0 4194304 0 0 0 0 0 0 0 0 524288 2048 16384 0 0 0 0 32768 0 536870912 0 67174400 0 67108864 0 0 0 2147483648 2048 0 0 0 0 0 0 2 0 0 18 0 0 0 1 0 64 0 8388736 256 524288 16777216 0 0 0 16 0 0 134217728 0 134217792 0 264 64 1 0 32768 0 2048 0 524320 268435456 0 0 0 0 16 0 0 1024 1073741824 0 0 16 256 0 0 268435456 0 0 0 4 0 0 1024 0 4 0 8388608 0 0 0 0 0 0 0 262144 0 0 0 0 0 0 8388608 0 0 0 2147483648 1048576 268435456 16777216 0 0 0 512 0 0 0 0 0 268435456 0 268435456 0 0 0 0 131072 96 4096 0 0 0 0 0 0 524288 0 0 0 0 256 0 1073741824 0 0 0 0 0 0 0 17303552 0 0 16777216 4194304 64 0 570425344 0 0 16777216 32 0 524288 1073741824 0 65536 0 524288 0 8 0 0 1024 2097152 0 512 0 0 536870976 2 0 0 0 0 0 0 0 0 33554432 0 0 0 1024 0 0 0 0 0 33554432 0 1310848 0 16384
is_linear=0
shrinkage=0.2


Tree=8
num_leaves=31
num_cat=17
split_feature=17 2 17 2 1 4 4 17 6 6 17 3 2 2 1 17 26 17 17 17 17 17 17 2 17 28 17 35 17 28
split_gain=6.96436e+09 2.12065e+09 1.94024e+09 5.21e+08 4.42713e+08 4.40419e+08 3.86402e+08 3.95754e+08 3.67525e+08 3.35629e+08 2.85128e+08 2.55575e+08 2.32286e+08 2.24154e+08 2.17155e+08 4.3881e+08 1.91154e+08 1.90183e+08 1.73129e+08 1.67644e+08 1.79474e+08 1.65113e+08 1.622e+08 1.52648e+08 1.43962e+08 1.42517e+08 1.4111e+08 1.35891e+08 1.34636e+08 1.32224e+08
threshold=0 6750.5000000000009 1 4877.5000000000009 2 0.33389500000000005 0.014100000000000001 3 0.024920000000000005 0.10072500000000002 4 4.495000000000001 10308.500000000002 9090.5000000000018 5 6 7 8 9 10 11 12 13 10363.500000000002 14 30.500000000000004 15 198.50000000000003 16 20.500000000000004
decision_type=9 2 9 2 1 2 2 9 2 2 9 2 2 2 1 9 1 9 9 9 9 9 9 2 9 2 9 2 9 2
left_child=1 16 3 -2 12 8 9 -8 10 14 11 -5 -3 -6 24 29 -1 -9 -11 -17 -21 -19 -22 -13 -4 -7 -24 -15 -28 -16
right_child=2 4 6 5 13 25 7 17 -10 18 -12 23 -14 27 15 19 -18 21 -20 20 22 -23 26 -25 -26 -27 28 -29 -30 -31
leaf_value=53.358901999178322 9.29297997753077 216.60010332002062 8.4479222509959904 109.26864054415772 391.8870316270586 261.25340674843972 63.332775323536673 42.951093472960267 200.4918636211342 74.334435533479436 27.934055358836765 41.429439045391568 432.24664031091288 536.89126128338751 33.458756302430949 13.87115459390037 143.90349210340881 35.954766924501591 18.395508502575854 12.564051387249567 11.85323889620174 3.9658754925899986 11.33612153770585 120.3996300892132 -3.5046146497414328 87.524383289950663 10.983537606763782 934.80263788132436 -1.7455113628176369 10.656108923942803
leaf_weight=1454 27543 1103 41346 3421 1068 474 5232 5717 573 2699 30742 12010 244 188 17428 31785 2812 6812 12237 39599 38303 119923 34771 1066 1592185 314 33830 42 1867537 24431
leaf_count=1454 27543 1103 41346 3421 1068 474 5232 5717 573 2699 30742 12010 244 188 17428 31785 2812 6812 12237 39599 38303 119923 34771 1066 1592185 314 33830 42 1867537 24431
internal_value=0 200.451 -0.349819 31.2648 341.441 43.7232 -0.971306 9.43388 41.279 -1.35476 39.3478 60.5635 253.779 427.166 -1.47485 -0.123383 113.505 7.29948 28.566 -0.538188 -0.76566 5.68798 -1.03306 47.8674 -3.20204 192.026 -1.28805 609.553 -1.51897 20.1452
internal_weight=0 6911 3.94998e+06 76143 2645 48600 3.87384e+06 137684 47812 3.73615e+06 47239 16497 1347 1298 3.72122e+06 2.08768e+06 4266 132452 14936 2.04582e+06 2.01404e+06 126735 1.97444e+06 13076 1.63353e+06 788 1.93614e+06 230 1.90137e+06 41859
internal_count=3956889 6911 3949978 76143 2645 48600 3873835 137684 47812 3736151 47239 16497 1347 1298 3721215 2087684 4266 132452 14936 2045825 2014040 126735 1974441 13076 1633531 788 1936138 230 1901367 41859
cat_boundaries=0 69 151 152 234 303 304 384 385 462 540 616 697 780 863 946 1026 1109
cat_threshold=0 0 0 0 0 0 0 0 0 0 0 0 0 0 0 0 0 0 0 0 0 0 0 0 0 0 0 0 0 0 0 0 0 0 0 0 0 0 0 0 0 0 0 0 0 0 0 0 0 0 0 0 134217728 0 0 0 0 0 0 0 0 0 0 0 0 0 0 0 130 0 0 0 0 0 0 4 16777216 516 0 0 16384 134217728 268435488 0 0 0 0 64 0 0 0 0 0 0 0 0 0 16777216 2048 285246464 2076 0 0 0 0 0 0 0 0 0 0 0 0 0 0 0 0 0 0 0 0 16777216 0 0 0 0 0 0 0 0 0 0 0 65536 0 4194304 8431617 49232 0 0 0 0 0 0 0 0 0 0 0 0 268435456 18 0 0 18 32 0 33554432 1040 0 10368 0 4194304 4194304 48 0 0 0 0 0 0 0 0 0 16384 0 0 16777216 65536 0 0 0 0 268435456 0 0 0 0 0 67108864 8320 0 0 128 0 0 0 0 0 0 8388608 0 0 0 0 0 0 0 67371008 0 0 0 0 0 0 8192 0 524288 0 0 0 0 0 0 0 1 0 0 2097152 524320 128 0 0 536870912 0 0 0 0 0 0 4 0 4 0 0 0 0 32 0 0 0 0 0 0 0 0 0 0 0 0 0 0 0 0 16778240 2076 0 0 0 0 0 0 0 0 0 0 0 0 0 0 0 0 0 0 0 0 0 0 0 0 0 0 0 0 0 0 0 0 65536 0 0 8192 16464 100 536870912 0 0 16777216 0 0 0 0 4128 0 4194304 0 0 0 0 0 0 0 0 0 0 0 0 40 0 0 0 0 0 0 0 0 33554434 0 0 0 0 201326592 8192 2147484672 0 268435456 0 0 8388608 8 16384 0 0 0 0 0 0 131072 0 1048576 67108864 0 16 0 0 268435456 524288 8388608 0 0 2155872260 2147487744 0 0 0 0 0 0 0 0 2097152 0 0 1073741824 2146 8388608 0 0 2415919104 4 0 0 524288 0 0 32768 0 0 0 0 0 1048576 0 0 0 0 0 0 0 1073741824 16384 16384 16 0 0 0 0 33554432 0 0 8 0 1342177280 67108864 0 512 0 0 0 0 8 134217728 0 0 0 262144 262144 0 0 0 0 0 8388608 26 0 0 268435456 0 9437184 2 0 0 0 0 0 0 0 0 262144 0 0 536870912 0 0 0 0 0 33554432 24 0 2048 0 0 0 0 0 0 0 0 0 0 0 0 0 0 0 0 0 0 0 0 0 0 512 0 0 0 8 0 1006632960 0 0 0 128 64 0 0 0 134217728 0 0 0 0 0 0 0 0 0 0 0 0 0 0 0 0 0 0 524288 0 0 0 0 0 0 0 603979776 0 0 2097152 544 0 8 0 0 256 0 2 128 2 0 2048 67108928 65536 0 0 0 0 67108864 0 0 0 0 16384 0 0 0 0 0 0 0 1073741824 0 512 0 0 1 0 8388608 0 512 0 128 0 0 0 4097 0 0 0 0 3145728 0 32 65536 0 0 0 0 0 0 0 603979776 0 0 0 524288 524296 537002016 0 0 0 0 0 0 0 2147483648 65536 16 0 0 0 0 268435456 16384 2048 256 0 0 0 0 0 0 1048576 0 0 0 0 0 2147483648 268435456 0 1048576 0 0 32768 0 0 33554432 0 0 0 0 0 16384 0 2048 0 32 4 33554432 0 0 671088640 269484032 16400 0 0 0 0 268435456 4194304 0 0 0 0 0 0 0 0 4194304 0 0 0 0 0 0 0 2097152 0 0 0 268697600 268435456 0 16384 0 128 0 0 0 0 524288 16777224 0 0 1040 2147483648 0 0 0 0 0 268435456 0 0 0 0 0 0 0 1024 0 0 0 0 0 0 4194304 0 0 0 0 4 0 8388608 4194305 0 0 0 16396 16 262144 0 4194304 0 0 0 0 0 0 131072 0 0 0 0 0 0 0 536870912 524288 0 0 1024 8 4160 512 0 16777216 1 0 0 0 0 4194304 0 0 0 0 0 131328 0 0 134217728 0 4 0 16 0 0 0 0 262144 0 0 0 0 0 0 512 0 0 0 0 0 0 0 0 0 0 0 1048576 0 64 0 0 4096 0 0 0 64 512 8 16 0 0 0 0 0 256 536870912 268435456 0 16384 0 0 0 0 17 0 0 0 0 256 1048576 2048 0 8192 136314880 0 0 0 0 32 0 2164260872 0 0 0 0 1 2147483648 0 268435457 0 0 16777216 0 0 0 0 0 1 0 0 0 536870912 0 0 8192 0 0 0 0 0 0 0 0 256 0 0 0 0 0 5242880 0 4 0 0 0 0 0 0 0 0 0 0 131072 0 1 0 0 0 536870912 67174400 0 0 268435456 0 0 2147483648 8388608 0 0 0 0 0 0 157696 0 8388608 537001988 0 0 0 0 0 131072 0 134217856 268500992 2048 0 0 0 0 1 8388608 0 262144 2415919104 0 0 0 0 0 0 0 0 1073741840 262144 0 16785408 0 0 0 0 0 0 4194340 2 0 16384 0 0 131072 0 262144 0 0 4096 0 0 0 0 0 524288 0 0 0 16 0 0 1048576 0 0 268435456 0 16384 0 0 512 0 0 0 0 0 0 65536 536870912 0 0 131072 0 0 4 0 0 0 0 64 0 0 32768 2176 0 256 0 0 0 0 0 0 0 131072 0 0 0 0 32 1048576 0 0 0 0 65536 16384 0 0 8 0 0 0 0 0 0 0 0 512 0 131072 2048 128 0 0 128 0 2048 16384 0 0 2 0 1024 0 0 8 67174400 0 2149580804 0 0 0 2621440 0 0 0 0 0 0 0 1026 0 0 16 33554432 262144 0 0 0 33554432 0 0 4 0 8 0 0 0 16
is_linear=0
shrinkage=0.2


Tree=9
num_leaves=31
num_cat=13
split_feature=17 2 17 2 27 35 20 4 20 4 28 17 4 17 2 2 2 17 26 0 17 20 0 6 1 17 3 6 3 3
split_gain=4.46034e+09 1.38567e+09 1.27974e+09 4.44111e+08 3.38108e+08 3.31704e+08 2.67184e+08 2.50879e+08 2.23621e+08 2.02766e+08 1.98689e+08 1.98006e+08 1.85584e+08 1.5987e+08 1.57948e+08 1.52604e+08 1.50793e+08 3.13029e+08 1.43233e+08 1.62337e+08 1.41725e+08 1.39578e+08 1.38067e+08 1.36752e+08 1.35878e+08 1.35186e+08 1.67721e+08 1.61968e+08 1.34324e+08 1.35706e+08
threshold=0 7261.5000000000009 1 8636.5000000000018 2 134.50000000000003 3 0.30819000000000002 4 0.15562000000000001 50.500000000000007 5 0.17848500000000003 6 4341.5000000000009 3342.5000000000005 8636.5000000000018 7 8 4883.5000000000009 9 10 4883.5000000000009 0.014630000000000002 11 12 4.495000000000001 0.14202000000000001 2.8950000000000005 103.16000000000001
decision_type=9 2 9 2 1 2 9 2 9 2 2 9 2 9 2 2 2 9 1 2 9 9 2 2 1 9 2 2 2 2
left_child=1 15 3 9 5 -3 7 16 13 14 22 -9 23 -8 -2 -1 -4 -18 19 -6 -15 -10 -7 -5 -17 -16 -27 -28 -26 -30
right_child=2 4 6 12 18 10 8 11 21 -11 -12 -13 -14 20 25 24 17 -19 -20 -21 -22 -23 -24 -25 28 26 27 -29 29 -31
leaf_value=-50.338933169931401 0.65587643828523734 262.85277077046834 0.55701380653540544 53.701580068134234 363.76781751738122 577.88562714760769 -10.373335769810659 65.091197836926796 -1.4261888392060991 76.597949882093232 1043.0366152343749 13.807365230760794 202.8867506784085 -8.3085711835934184 14.322780148123531 155.0915688537865 26.869933378470932 3.3287998810273969 126.73892651501617 183.91096670539292 1.6890104988970831 -4.9417790462135232 363.68980561649101 185.05775565047938 15.004804748055641 71.111127811651485 20.687082752427823 195.43805179156467 149.36427868641732 39.664686840697605
leaf_weight=266 16509 492 813105 11515 398 228 50971 4071 959608 2375 25 11563 361 60249 21711 1483 27023 137648 532 405 965115 853559 255 326 890 4552 9500 217 1222 715
leaf_count=266 16509 492 813105 11515 398 228 50971 4071 959608 2375 25 11563 361 60249 21711 1483 27023 137648 532 405 965115 853559 255 326 890 4552 9500 217 1222 715
internal_value=0 160.418 -0.279688 27.11 286.019 376.137 -0.752834 2.07662 -1.7256 19.4388 493.257 27.2118 61.6247 0.557997 16.8524 96.6782 1.67474 7.1938 214.094 269.697 1.10149 -3.08119 464.801 57.318 105.752 24.2841 39.403 24.5896 79.0404 108.871
internal_weight=0 6911 3.94998e+06 67066 2335 1000 3.88291e+06 993410 2.8895e+06 54864 508 15634 12202 1.07634e+06 52489 4576 977776 164671 1335 803 1.02536e+06 1.81317e+06 483 11841 4310 35980 14269 9717 2827 1937
internal_count=3956889 6911 3949978 67066 2335 1000 3882912 993410 2889502 54864 508 15634 12202 1076335 52489 4576 977776 164671 1335 803 1025364 1813167 483 11841 4310 35980 14269 9717 2827 1937
cat_boundaries=0 69 151 152 158 164 247 330 408 409 491 497 498 580
cat_threshold=0 0 0 0 0 0 0 0 0 0 0 0 0 0 0 0 0 0 0 0 0 0 0 0 0 0 0 0 0 0 0 0 0 0 0 0 0 0 0 0 0 0 0 0 0 0 0 0 0 0 0 0 134217728 0 0 0 0 0 0 0 0 0 0 0 0 0 0 0 130 0 0 0 0 0 33554432 4 0 516 0 0 512 134217728 268435488 0 0 0 0 0 0 0 0 0 0 0 0 0 0 64 2048 285246464 2076 0 0 0 0 0 0 0 0 0 0 0 0 0 0 0 8192 0 0 0 0 0 0 0 0 0 0 0 0 0 0 2147483648 0 65536 1073741824 4194304 10241 16464 0 0 0 0 131072 0 0 16777216 0 0 0 0 268435456 13 1107361792 205619520 537133328 3058158730 16384 4096 2281701384 1108623410 268443651 1236808228 524306 576 4096 0 0 0 0 0 0 0 2049 0 4194304 16384 0 0 0 0 0 0 0 0 0 0 0 0 0 0 0 0 0 0 0 0 0 65536 1073741824 8 32 0 1 0 0 134217856 66 0 0 0 134217728 0 0 0 0 0 0 0 0 0 0 0 8192 0 12 603979776 1048576 0 0 0 8 0 0 0 0 0 0 262656 327680 0 268435456 16416 0 0 0 536870912 256 0 4096 0 0 0 0 196608 1056 0 0 524290 0 0 536870912 0 0 524288 0 0 0 0 0 64 0 268435456 0 0 33554432 0 0 2048 0 134217728 256 0 0 0 0 0 1077936128 262152 0 0 0 0 0 0 0 0 0 0 0 0 0 8 0 0 256 0 0 0 0 0 0 0 0 0 256 0 0 0 0 270336 0 0 0 16 67108873 0 0 537133056 8 33554432 0 0 0 0 0 0 16 16777216 10272 0 4194304 0 0 0 0 0 0 0 0 0 0 0 0 0 0 0 0 0 0 0 0 33554432 33554432 0 0 12 0 671088640 0 1024 0 128 4 0 0 0 134217728 0 0 131072 0 0 0 0 0 0 0 0 8 0 0 805306368 524288 8396800 0 0 8388608 2147520512 0 0 0 0 0 0 16777216 2147483648 270532608 32 413 1024 67584 0 0 0 0 524288 1048576 0 0 1048576 0 0 134217728 4096 16 64 0 0 0 109051904 1 0 0 0 0 0 0 0 1073741824 0 0 0 0 0 67108864 0 1024 0 0 2097152 0 0 0 0 0 256 0 4096 0 0 0 0 0 0 0 33554432 1048576 0 0 0 0 0 0 64 0 150994945 16384 0 8 4194304 0 0 0 0 16777216 0 134217728 0 0 0 8192 545259623 285221376 1077460996 321 2133156 2070 33 0 0 0 0 0 33554432 0 0 516 0 0 512 134217728 268435456 0 0 0 0 0 0 0 0 0 0 0 0 0 0 0 2048 32768 0 0 0 0 0 0 0 0 0 0 0 0 0 0 0 0 8192 0 0 0 0 0 0 0 0 0 0 0 0 0 0 2147483648 0 0 1073741824 4194304 10240 0 0 0 0 0 0 0 0 16777216 0 0 0 0 268435456
is_linear=0
shrinkage=0.2


Tree=10
num_leaves=31
num_cat=15
split_feature=17 17 17 35 2 4 17 6 2 17 1 35 35 26 17 17 2 3 17 8 27 4 17 2 21 17 32 17 4 2
split_gain=2.92878e+09 1.2206e+09 5.75135e+08 4.03033e+08 2.57645e+08 2.40805e+08 3.78629e+08 2.15539e+08 1.88247e+08 2.58127e+08 1.86883e+08 2.11684e+08 1.80445e+08 1.79878e+08 1.5579e+08 1.52305e+08 1.49262e+08 1.9142e+08 1.42015e+08 1.36473e+08 1.25621e+08 1.23586e+08 1.23421e+08 1.21095e+08 1.1905e+08 1.17887e+08 1.17258e+08 1.14259e+08 1.1184e+08 1.07296e+08
threshold=0 1 2 144.50000000000003 9172.0000000000018 0.014100000000000001 3 0.19887000000000002 7371.5000000000009 4 5 107.50000000000001 135.50000000000003 6 7 8 6052.0000000000009 18.695000000000004 9 0.16279000000000002 10 0.40081500000000009 11 12400.000000000002 12 13 -0.5 14 0.44498500000000002 7619.5000000000009
decision_type=9 9 9 2 2 2 9 2 2 9 1 2 2 1 9 9 2 2 9 2 1 2 9 2 9 9 2 9 2 2
left_child=1 12 10 13 -5 7 21 16 -8 -10 11 29 26 -3 -13 -11 22 18 -18 -12 -14 -7 -4 28 -19 -26 -1 -9 -6 -2
right_child=2 3 5 4 23 6 8 27 9 15 19 14 20 -15 -16 -17 17 24 -20 -21 -22 -23 -24 -25 25 -27 -28 -29 -30 -31
leaf_value=107.96856513884093 54.292230228959241 3.995415683947892 13.15514349684938 96.53905897254009 185.85891865358809 54.831060559491746 1.3039039973053337 72.151835236375661 61.694989251211638 47.289298339871351 14.465479565268822 -10.075140727821916 250.85627905582092 70.645125855910564 70.014851061694372 5.9680053406725193 -7.7665586984834611 1.1258553869109851 8.3119470860241957 102.66119749051157 473.66859604684936 162.79300627723339 -2.1574142678174013 546.78497298104423 14.398079372674534 -3.4018314087161992 269.6701906940558 17.678420511261915 560.90420624704075 131.55421248857814
leaf_weight=277 1447 2674 21248 3261 878 3643 98926 1823 4741 4118 44673 2449 341 4132 1600 26377 25100 833364 176115 713 256 480 2207329 42 15367 463726 509 9818 33 1429
leaf_count=277 1447 2674 21248 3261 878 3643 98926 1823 4741 4118 44673 2449 341 4132 1600 26377 25100 833364 176115 713 256 480 2207329 42 15367 463726 509 9818 33 1429
internal_value=0 96.9971 -0.303935 74.5973 123.273 -0.583935 7.6124 -0.885872 5.77461 18.3279 20.5255 51.1177 273.665 44.5689 21.7212 11.5616 -0.970396 0.562229 6.30631 15.8475 358.537 67.2369 -2.01137 214.752 -0.318406 -2.83061 212.684 26.2862 199.445 92.6814
internal_weight=0 12403 3.94449e+06 11020 4214 3.89218e+06 138285 3.75389e+06 134162 35236 52311 6925 1383 6806 4049 30495 3.74225e+06 1.51367e+06 201215 45386 597 4123 2.22858e+06 953 1.31246e+06 479093 786 11641 911 2876
internal_count=3956889 12403 3944486 11020 4214 3892175 138285 3753890 134162 35236 52311 6925 1383 6806 4049 30495 3742249 1513672 201215 45386 597 4123 2228577 953 1312457 479093 786 11641 911 2876
cat_boundaries=0 69 138 213 295 372 373 374 442 525 597 598 674 677 758 836
cat_threshold=0 0 0 0 0 0 0 0 0 0 0 0 0 0 0 0 0 0 0 0 0 0 0 0 0 0 0 0 0 0 1024 0 0 0 0 0 0 0 0 0 0 0 0 0 0 0 0 0 0 0 0 0 134217728 0 0 0 0 0 0 0 0 0 0 0 0 0 0 0 130 0 0 0 0 0 0 0 0 0 0 0 0 0 0 0 0 0 0 0 0 0 0 0 0 0 0 0 0 0 0 0 0 0 0 0 0 0 0 0 0 0 0 0 0 0 0 0 0 0 0 0 0 0 0 0 0 0 0 0 0 0 0 0 0 0 0 0 0 2 0 0 16777216 0 0 0 4 0 516 0 0 0 134217728 268435488 0 0 0 0 64 0 0 0 0 0 0 0 0 0 0 0 293634048 2072 0 0 0 0 0 0 0 0 0 0 0 0 1032 4096 0 0 8388608 0 0 0 0 0 0 0 0 0 0 0 0 0 0 0 65536 0 4194304 10241 49232 0 0 0 0 131073 4194305 8388608 0 18 0 0 33554432 1040 0 10368 0 4194304 4210688 48 0 0 0 1048576 0 0 0 0 0 16384 0 1073741824 16793600 0 16 16777216 0 0 268435456 0 0 0 0 0 335544320 128 0 0 0 0 0 0 0 0 0 0 0 0 0 16777216 0 0 0 67108864 0 0 0 0 0 0 0 0 0 0 0 0 0 0 0 0 0 0 0 0 32 128 0 0 805306368 0 0 1024 2147483680 4 16777216 0 0 0 0 0 0 0 0 0 0 0 0 0 0 0 0 0 268436480 0 0 16384 0 0 0 1048576 0 0 0 1073741824 8 0 0 67117056 1024 512 128 4 0 262144 8 134234112 0 0 0 0 0 0 0 0 0 536870912 0 0 0 0 268435456 1048576 8192 2 525314 0 4096 0 0 0 0 0 0 0 0 2097152 1 3106 0 0 0 0 0 0 0 0 0 0 0 0 134217728 32 0 0 0 0 0 0 0 0 0 0 0 0 0 0 0 0 0 0 0 0 0 0 0 0 0 0 0 0 0 0 0 0 0 0 0 0 0 0 0 0 0 0 0 0 0 0 0 0 0 0 0 0 4194304 2048 0 8388608 0 268435456 524288 0 0 0 0 2147483648 32768 0 0 0 0 0 0 0 0 0 256 0 0 0 0 67108864 65536 0 0 0 262144 0 33554432 0 0 4 0 0 0 2147484160 0 0 64 16 134217728 0 4194304 0 0 0 0 0 0 0 0 0 2149580800 8388608 8200 0 0 0 524288 1048576 0 0 0 0 0 0 0 1 32 0 0 128 809500672 0 0 0 0 0 131328 0 0 4194304 0 0 0 655360 4 0 0 0 0 0 671088640 0 16 0 4096 0 0 0 32 32768 0 0 0 0 0 512 4325376 128 4194304 0 0 0 0 0 0 0 1077936128 0 0 0 0 0 0 0 0 0 17055744 256 0 0 8192 256 0 0 0 0 0 0 0 33619968 0 0 0 0 33833216 8 0 0 262144 114 4096 0 0 2048 0 0 1024 262160 1026 0 64 65536 0 557056 0 0 0 268435456 0 0 0 0 0 134217728 0 0 0 0 0 0 0 0 0 0 4096 0 36 256 0 0 0 0 0 0 4194304 0 64 0 0 0 0 0 17408 0 0 0 0 32 32 0 0 0 0 268435456 128 0 524288 8388672 4096 0 0 33554432 0 0 0 268435968 2399026270 281280968 8 0 0 0 0 0 0 0 128 0 0 0 0 0 0 32768 268435456 1074790400 536870912 1536 0 0 0 0 0 1073741824 17956864 9 2048 0 67108864 0 0 0 0 0 0 0 0 0 0 0 0 0 0 0 0 0 0 0 805306368 2359296 0 16777222 268435968 8388608 0 0 0 2 0 524288 0 0 0 2048 0 0 4096 0 0 0 0 0 0 0 0 0 0 16777216 0 32768 0 0 0 0 0 33554432 16 0 2048 0 0 16384 0 0 0 0 0 0 0 0 0 0 0 0 0 0 0 0 0 0 0 0 128 0 0 8 0 738197504 0 0 0 0 64 0 0 0 134217728 0 0 0 0 0 0 0 0 0 0 0 0 0 0 0 0 0 0 524288 0 0 0 0 0 0 0 603979776 0 0 2097152 32
is_linear=0
shrinkage=0.2


Tree=11
num_leaves=31
num_cat=21
split_feature=17 2 17 35 17 27 28 17 1 17 17 35 6 4 17 4 26 25 17 17 17 35 17 20 17 17 17 17 17 17
split_gain=1.95582e+09 6.20434e+08 6.13999e+08 2.68757e+08 2.46234e+08 2.21482e+08 2.38239e+08 2.06437e+08 1.71498e+08 4.52197e+08 1.79201e+08 1.66282e+08 1.62645e+08 1.68138e+08 1.4472e+08 1.40317e+08 1.36854e+08 1.06881e+08 1.04772e+08 1.17517e+08 1.05356e+08 1.03176e+08 1.01907e+08 1.23111e+08 1.52872e+08 1.34492e+08 1.40694e+08 1.0784e+08 1.34693e+08 1.30691e+08
threshold=0 5725.5000000000009 1 106.50000000000001 2 3 50.500000000000007 4 5 6 7 92.500000000000014 0.18125500000000003 0.40167500000000006 8 0.39871500000000004 9 22.500000000000004 10 11 12 50.500000000000007 13 14 15 16 17 18 19 20
decision_type=9 2 9 2 9 1 2 9 1 9 9 2 2 2 9 2 1 2 9 9 9 2 9 9 9 9 9 9 9 9
left_child=1 21 3 7 -5 6 11 -2 18 15 -11 -3 13 -6 -12 -10 -9 -8 -4 -20 -21 -1 -16 -24 -25 -26 -27 -28 -29 -30
right_child=2 5 8 4 12 -7 17 16 9 10 14 -13 -14 -15 22 -17 -18 -19 19 20 -22 -23 23 24 25 26 27 28 29 -31
leaf_value=-50.579472864970604 19.683325950934535 108.17934246184552 7.8945060578720616 -10.698909488417915 25.806305034055733 111.94581024487593 249.44671185302738 31.362174518315687 19.456215307905268 13.7306462154949 12.06582533447961 249.72861756577254 178.00327470584921 201.36965154453512 -12.697037411876117 118.81480906618138 91.373688047774849 761.27889075583607 6.8830909404099847 6.3099058136567177 -2.7557497594316707 62.847832914138053 3.076953909682151 11.273492710376736 10.808263144232386 10.350952430213939 9.8761293505434669 9.3912942768588916 9.0207596713797287 -2.5398459431452594
leaf_weight=377 5072 452 42632 9322 10141 1230 25 2253 43874 39373 39764 1250 304 223 25416 576 4902 47 55733 53013 1558507 2151 424594 41255 37313 40101 31781 41106 40227 1403875
leaf_count=377 5072 452 42632 9322 10141 1230 25 2253 43874 39373 39764 1250 304 223 25416 576 4902 47 55733 53013 1558507 2151 424594 41255 37313 40101 31781 41106 40227 1403875
internal_value=0 118.73 -0.164932 27.3283 13.0504 180.388 225.938 50.6936 -0.391007 0.772916 0.362857 212.137 33.7816 29.5839 0.115159 20.7391 72.5471 583.559 -1.89485 -2.14521 -2.45749 45.9324 -0.112741 0.0425638 -0.745136 -1.05618 -1.34056 -1.64969 -1.89639 -2.21775
internal_weight=0 5532 3.95136e+06 32217 19990 3004 1774 12227 3.91914e+06 2.20926e+06 2.1648e+06 1702 10668 10364 2.12543e+06 44450 7155 72 1.70988e+06 1.66725e+06 1.61152e+06 2528 2.08567e+06 2.06025e+06 1.63566e+06 1.5944e+06 1.55709e+06 1.51699e+06 1.48521e+06 1.4441e+06
internal_count=3956889 5532 3951357 32217 19990 3004 1774 12227 3919140 2209255 2164805 1702 10668 10364 2125432 44450 7155 72 1709885 1667253 1611520 2528 2085668 2060252 1635658 1594403 1557090 1516989 1485208 1444102
cat_boundaries=0 69 138 207 208 240 241 323 406 489 490 571 649 732 814 820 892 965 1047 1130 1210 1290
cat_threshold=0 0 0 0 0 0 0 0 0 0 0 0 0 0 0 0 0 0 0 0 0 0 0 0 0 0 0 0 0 0 0 0 0 0 0 0 0 0 0 0 0 0 0 0 0 0 0 0 0 0 0 0 0 0 0 0 0 0 0 0 0 0 0 0 0 0 0 0 130 0 0 0 0 0 0 0 0 512 0 0 0 0 32 0 0 0 0 0 0 0 0 0 0 0 0 0 0 0 0 268469248 8 0 0 0 0 0 0 0 0 0 0 0 0 0 0 0 0 0 0 0 0 134217728 0 0 0 0 0 0 0 0 0 0 0 0 0 4194304 10241 16464 0 0 0 0 0 0 0 0 0 0 0 0 0 0 0 0 0 0 0 0 0 0 0 0 0 0 0 0 0 0 32768 0 0 0 0 0 0 0 0 0 0 0 0 0 0 0 0 0 0 0 0 0 0 0 0 0 0 0 0 0 0 0 0 0 0 0 4194304 2049 16448 29 0 0 0 0 0 0 0 0 512 0 0 0 0 32 0 0 0 0 0 0 0 0 0 0 0 0 0 0 0 0 268436480 8 100 536870912 0 0 16777216 0 0 4 16777216 4100 0 0 0 134217728 268435456 0 0 0 0 0 0 0 0 0 0 0 0 0 0 0 2048 16777216 16 33554432 0 0 8 0 75497472 8193 525312 0 268435456 0 0 8650752 0 16384 0 0 0 0 0 0 0 0 0 0 0 16 0 0 268435456 0 8388608 0 525312 8388608 0 0 0 0 0 0 0 0 0 0 0 0 1073741824 0 805306368 0 0 0 0 524288 8 0 0 32 0 4194304 64 0 0 0 0 0 0 0 0 264 0 2147483648 40 0 0 0 0 0 0 1048576 0 0 0 0 0 0 0 67108864 2147485760 4 134217728 8388616 0 0 8 0 0 0 0 0 0 0 0 536870912 1048576 2214854656 0 0 0 0 0 0 0 65536 0 12 4096 0 0 0 0 0 33554432 0 0 2097152 0 0 0 0 0 131072 1 0 0 268435456 0 0 0 0 2048 0 0 67125248 0 0 0 0 0 0 0 2147483648 0 0 8192 131072 0 0 0 0 0 0 0 2052 0 0 1073741824 2048 0 134217728 16512 512 0 0 64 0 8 1 671088640 0 0 0 0 0 0 131072 0 0 0 8388608 2 64 0 67108864 524288 8192 0 0 0 0 0 0 0 0 0 262144 0 8 0 512 0 0 0 0 134217728 2146 0 0 16777216 0 0 8 0 0 1 2147483648 0 0 65536 268435456 0 268435456 0 0 0 0 0 0 0 0 256 0 0 0 32768 0 0 33554432 4 0 0 0 0 0 0 0 0 8 0 131072 0 0 0 0 0 536870912 0 0 0 0 0 0 2147745792 0 0 0 0 67108864 0 0 24578 131072 16 32772 0 0 0 0 0 131584 0 134217856 67584 0 0 0 2147483776 0 0 0 0 134217728 0 0 0 0 0 32768 0 536872960 0 32 16777216 0 0 131072 0 0 0 0 131072 0 0 16384 0 0 0 4194304 512 0 131072 0 0 0 16384 0 2048 0 134217728 0 0 0 0 0 0 0 589824 69271552 0 2 0 0 0 0 8388609 0 0 0 0 0 1048576 2048 0 0 537001984 0 64 0 0 0 0 16777216 2147483656 0 2048 2129920 64 0 2147483648 256 0 16384 0 0 0 0 0 1073741824 0 0 73728 0 32768 0 0 0 0 0 0 0 0 0 0 0 0 1048576 0 0 0 0 4 1073741824 0 0 0 512 0 4 16 0 0 0 1048576 0 0 0 0 32 268566528 0 0 2097152 0 0 0 0 0 0 0 0 0 8388608 2097184 0 0 0 0 0 262208 8 16384 0 32 0 1 0 0 131073 0 0 0 0 0 4194304 0 0 0 0 19398658 0 0 0 0 0 0 0 0 0 0 0 2097152 0 0 0 0 0 0 0 0 16384 0 10240 33554560 0 0 0 0 0 0 3072 0 0 0 0 8388625 0 268443648 0 0 0 0 0 0 0 0 0 0 0 0 0 67371008 0 8 0 0 0 0 0 0 0 0 0 1073741824 69206016 2147483656 603979776 0 537657344 0 65536 1241579528 98624 537141504 3059622050 540674 4608 0 0 0 65536 136314880 35651584 0 0 16 2147483904 0 0 32 0 0 0 0 603987968 0 0 0 0 16384 268435472 0 0 16384 0 0 33554432 4456448 0 0 0 0 1 0 0 0 0 33554432 129 0 16 134217728 0 0 0 0 0 0 8388608 0 0 0 0 0 133120 0 0 0 128 0 0 16777216 0 0 0 0 64 0 536870912 0 0 0 0 33571136 0 0 16384 65536 0 32768 0 0 0 1073741824 65536 0 0 1024 0 16 0 524288 64 0 0 0 1073741840 256 0 0 0 0 0 0 0 1073741824 1073741824 0 0 589824 0 0 2147483648 0 0 0 0 256 67108864 0 0 0 0 0 0 0 16777216 0 0 0 2147483648 0 0 132096 2 0 2 0 65536 0 0 36 0 0 0 0 0 64 16 65 0 536870912 128 262144 0 0 32 0 8192 268435456 131072 0 0 0 16777224 0 0 0 4194304 0 64 0 0 0 0 0 0 0 0 0 32768 134283264 512 8 0 33554432 0 0 32768 0 0 0 0 0 67108864 0 0 0 0 134217728 8 0 524288 0 0 0 0 0 0 0 0 0 128 0 16 1048576 0 0 0 0 0 8192 0 131104 0 0 0 0 0 0 0 131072 0 0 0 0 65536 524288 524289 0 1077936128 0 0 0 0 0 32 1024 0 0 8 2112 32768 603979776 0 0 0 4096 0 4096 0 0 0 0 2048 32 0 0 0 0 2097152 268443648 1 0 0 0 524288 67108864 0 0 0 4 0 1024 0 0 0 0 0 131072 8192 0 0 0 0 0 0 0 0 0 0 0 0 0 2147483776 0 256 0 0 0 0 0 0 0 524288 0 0 16384 32768 0 1048576 0 0 0 134250496 0 0 0 0 134217728 0 1073741824 147456 0 0 16908288 0 0 512 4 65536 2048 524288 0 0 0 2 0 67125248 0 0 1026 0 0 0 16 1048576 67108928 536870912 0 0 0 0 0 1 0 0 0 0 0 0 0 0 0 0 0 262144 0 0 0 0 0 0 0 0 16777216 5 0 0 0 0 0 0 0 16 8194 0 32 0 2048 32768 0 0 0 0 2097152 0 0 0 4194432 0 0 68157440 0 0 0 8 8388608 0 0 0 0 132 0 0 512 16384 32 0 4 512 4194304 0 0 1048576 536871424 65544 2097152 0 2048 0 0 0 0 32 0 0 0 0 0 0 0 0 0 131072 33554432 0 0 0 0 0 0 0 0 0 0 256
is_linear=0
shrinkage=0.2


Tree=12
num_leaves=31
num_cat=19
split_feature=17 1 17 2 28 17 17 17 4 2 35 17 35 20 1 17 17 3 17 1 28 25 17 17 35 17 17 27 17 4
split_gain=1.25911e+09 4.50268e+08 3.5985e+08 1.6264e+08 1.57894e+08 3.22404e+08 2.38118e+08 1.62785e+08 1.74874e+08 1.50042e+08 1.33401e+08 1.2605e+08 1.14156e+08 1.09653e+08 1.03932e+08 9.89426e+07 1.12115e+08 9.8502e+07 9.61144e+07 9.48218e+07 9.30387e+07 1.06647e+08 8.95292e+07 1.11011e+08 8.59542e+07 1.3131e+08 1.14808e+08 8.31023e+07 8.07039e+07 7.78008e+07
threshold=0 1 2 9591.0000000000018 20.500000000000004 3 4 5 0.17848500000000003 8878.5000000000018 198.50000000000003 6 41.500000000000007 7 8 9 10 4.495000000000001 11 12 50.500000000000007 22.500000000000004 13 14 106.50000000000001 15 16 17 18 0.15074000000000001
decision_type=9 1 9 2 2 9 9 9 2 2 2 9 2 9 1 9 9 2 9 1 2 2 9 9 2 9 9 1 9 2
left_child=1 10 9 12 5 19 -7 8 -6 24 20 -8 -3 22 -10 -15 -17 -11 -19 29 27 -22 -13 -24 26 -26 -2 -1 -25 -4
right_child=2 3 4 -5 7 6 11 -9 14 17 -12 13 -14 15 -16 16 -18 18 -20 -21 21 -23 23 28 25 -27 -28 -29 -30 -31
leaf_value=203.26622535135274 46.824383375030848 -71.950346338192972 32.209555823050209 166.34933735286705 11.364242815437649 18.530529326777476 -40.068219438990013 -1.5633029054438063 145.23303570250346 113.02516283201885 390.95357322372308 15.398403447744522 56.09242031475457 14.19408467740204 40.295407741031596 11.103779975544155 -1.0614769329838107 5.5592400715889889 65.853386053123643 9.0992476407756389 121.94042366169117 661.66775722503667 13.319183120397387 11.979825505391846 -17.541953969106746 15.334004950907957 11.893340347156935 90.572169164287743 0.78029069911260063 90.532007661254752
leaf_weight=689 5946 296 11632 517 15715 29863 3047 2280312 604 830 119 23010 4715 18089 1051 31181 1064180 1999 2258 8188 27 32 35275 27744 6832 16770 10289 516 354170 993
leaf_count=689 5946 296 11632 517 15715 29863 3047 2280312 604 830 119 23010 4715 18089 1051 31181 1064180 1999 2258 8188 27 32 35275 27744 6832 16770 10289 516 354170 993
internal_value=0 85.2325 -0.147895 59.4404 -0.352664 1.16783 0.843321 -1.41635 17.8663 17.6479 187.16 0.503901 48.5289 0.583728 79.7139 -0.472739 -0.715077 49.997 37.7082 25.8923 169.454 414.674 3.25593 2.58586 13.5216 5.81656 24.7229 157.447 1.59417 36.7677
internal_weight=0 6911 3.94998e+06 5528 3.90505e+06 1.60737e+06 1.58656e+06 2.29768e+06 17370 44924 1383 1.5567e+06 5011 1.55365e+06 1655 1.11345e+06 1.09536e+06 5087 4257 20813 1264 59 440199 417189 39837 23602 16235 1205 381914 12625
internal_count=3956889 6911 3949978 5528 3905054 1607372 1586559 2297682 17370 44924 1383 1556696 5011 1553649 1655 1113450 1095361 5087 4257 20813 1264 59 440199 417189 39837 23602 16235 1205 381914 12625
cat_boundaries=0 69 70 148 227 305 388 470 476 477 560 641 710 711 790 873 942 1011 1012 1093
cat_threshold=0 0 0 0 0 0 0 0 0 0 0 0 0 0 0 0 0 0 0 0 0 0 0 0 0 0 0 0 0 0 0 0 0 0 0 0 0 0 0 0 0 0 0 0 0 0 0 0 0 0 0 0 134217728 0 0 0 0 0 0 0 0 0 0 0 0 0 0 0 130 1 0 0 4096 0 0 0 8 0 0 0 0 512 256 32 0 0 0 0 0 0 0 0 2048 0 0 0 0 0 0 0 285246464 8 128 0 0 0 0 0 268436480 0 0 0 0 0 0 512 0 0 0 512 0 262144 0 0 8388608 0 0 0 0 0 0 0 0 2097152 0 0 4194304 10241 16464 0 0 0 0 0 16384 1082130432 8388608 786432 536875008 0 0 0 0 0 0 0 4756 0 0 16384 0 0 0 0 0 0 64 0 0 0 0 0 0 0 0 0 64 0 0 20 0 0 0 0 0 75497472 67133568 0 0 0 0 0 0 4096 2097152 0 0 0 0 0 67108864 0 0 0 0 0 16 0 0 0 0 272629760 65536 1074266112 0 0 0 0 0 0 0 0 16777217 0 2097152 1048576 128 0 0 2 0 0 33554432 4 0 2 0 16384 0 0 268435456 0 0 0 0 0 0 256 0 0 34 0 0 0 0 0 0 0 0 0 0 0 8 128 134217728 65536 524288 512 32 16 0 0 1024 134234112 0 16384 0 0 0 0 0 0 0 2147483648 0 0 0 0 536870912 256 2 0 0 0 8388624 0 0 0 0 0 34603008 0 0 16777216 160 2162688 0 16777216 0 0 0 0 0 0 0 64 0 0 0 0 0 512 0 0 4194304 0 0 0 0 0 0 0 0 256 0 0 2048 0 0 0 0 32 256 0 0 0 268435456 3 0 4194304 0 0 1048576 0 0 0 0 0 0 536870912 0 0 134217728 0 0 0 67239936 2147483648 1048576 16777216 0 524288 0 0 0 0 0 4 0 0 268438016 0 0 0 0 0 872415232 134217732 0 0 0 0 0 0 0 0 0 0 0 0 0 0 0 0 0 0 0 0 0 0 0 0 0 0 0 0 0 0 0 0 0 0 0 0 0 0 0 0 0 0 0 0 0 0 0 0 0 0 0 0 0 0 0 0 0 0 0 0 0 0 0 1048576 0 0 0 0 0 0 0 0 0 0 0 0 0 0 0 0 0 805306368 134283264 134250576 262400 1364131631 16386 4160 17 0 0 0 0 33554432 8 0 0 0 16 0 0 0 0 0 0 1048576 0 512 0 131072 0 8 131072 0 0 0 0 0 0 8388608 0 0 0 1073741824 4 0 1073741824 0 64 0 69206016 0 0 0 8 67108864 0 545259776 0 262144 0 0 0 0 0 262144 0 0 0 524288 589824 536870976 0 0 0 512 0 32768 0 0 0 16 1024 0 0 0 0 0 0 0 0 524288 0 0 0 0 0 0 0 67108864 65536 0 0 268435456 134217728 0 1073741824 0 0 8208 0 0 0 0 0 0 0 0 0 1073741840 36864 536870912 0 268435456 0 0 149504 0 0 0 0 0 65538 0 0 33554432 2 0 0 0 512 0 268435456 0 2048 268435456 0 0 67108864 0 0 0 4 0 0 0 2048 0 0 4 33554944 2147483648 0 0 0 0 0 0 0 0 0 0 2147483648 0 0 0 0 0 0 0 0 0 0 0 0 0 32 0 0 0 0 0 0 0 0 0 0 0 0 0 0 0 0 0 0 0 0 0 0 0 0 0 0 0 0 0 0 0 0 0 0 0 0 0 0 0 0 0 0 0 0 0 0 0 0 0 0 0 0 0 2049 16384 27 0 0 0 4194320 4 64 2 0 33 2684354560 4227200 0 32 0 0 0 0 0 0 0 0 0 0 0 0 16777216 0 0 0 0 0 0 2 0 0 0 0 0 262145 134217728 0 0 0 2147483648 0 0 0 0 1 131072 0 0 0 0 0 0 0 8521728 0 0 0 0 0 0 0 0 0 4227072 0 0 0 0 0 537001984 2147483648 2147500032 0 0 16384 8388608 0 0 64 0 0 0 0 3072 0 0 0 0 0 0 0 0 0 65536 2147483648 0 0 2147500036 268435456 0 131072 0 64 131072 2048 1048576 0 33555008 0 0 0 0 0 0 0 8192 1 0 0 0 0 0 0 0 0 0 0 0 0 0 0 2097152 0 0 0 0 0 0 0 0 0 8388616 134221824 0 0 0 0 32 0 4194304 0 260 512 0 0 0 32 131072 0 0 0 0 0 0 0 0 0 0 0 0 256 0 0 0 0 0 0 0 0 0 0 0 0 0 0 0 0 0 0 0 0 0 0 0 0 0 0 0 0 0 0 0 0 0 0 0 0 0 0 0 0 0 0 0 0 0 0 0 0 0 0 0 0 0 4194304 2049 16448 0 0 0 0 0 0 0 0 0 0 0 0 0 0 0 0 0 0 0 0 0 0 0 0 0 0 0 0 0 0 32768 0 0 0 0 0 0 0 0 0 0 0 0 0 0 0 0 0 0 0 0 0 0 0 0 0 0 0 0 0 0 0 0 0 0 0 4194304 2049 16448 15 33554433 0 0 2147483648 136314880 0 0 0 8192 0 2048 0 0 0 0 0 0 0 0 0 8 0 524288 134217728 0 0 0 0 0 0 4456448 512 0 0 0 0 0 268435456 134217728 0 4 0 64 0 0 0 1048576 67108864 65536 0 0 0 0 0 0 0 0 50331664 0 0 0 0 0 0 0 262144 0 65536 4194304 262208 0 536870912 0 256 0 8192 0 0 0 0 8388608
is_linear=0
shrinkage=0.2


Tree=13
num_leaves=31
num_cat=20
split_feature=17 17 31 2 17 17 17 2 17 17 2 17 20 26 2 17 2 4 17 6 17 4 17 17 17 17 17 17 4 17
split_gain=8.31598e+08 3.86972e+08 1.97517e+08 1.45816e+08 4.42333e+08 1.44605e+08 1.42456e+08 1.10196e+08 1.09504e+08 1.09181e+08 1.01944e+08 1.00358e+08 9.66606e+07 9.15466e+07 8.52549e+07 2.94495e+08 8.72594e+07 7.64755e+07 7.42663e+07 7.39438e+07 7.24156e+07 6.24575e+07 1.55113e+08 6.08981e+07 6.0733e+07 5.87943e+07 6.16667e+07 5.7503e+07 5.48957e+07 5.39969e+07
threshold=0 1 -0.24999999999999994 8569.5000000000018 2 3 4 10231.500000000002 5 6 10363.500000000002 7 8 9 2802.5000000000005 10 4820.0000000000009 0.21104000000000003 11 0.47478500000000007 12 0.40076000000000006 13 14 15 16 17 18 0.45333500000000004 19
decision_type=9 9 2 2 9 9 9 2 9 9 2 9 9 1 2 9 2 2 9 2 9 2 9 9 9 9 9 9 2 9
left_child=1 13 -3 12 10 -6 17 19 -8 -10 -5 -11 14 -1 23 16 -16 -7 -17 28 -13 25 -23 -2 -22 -14 -27 -28 -4 -20
right_child=3 2 7 4 5 6 8 -9 9 11 -12 20 21 -15 15 18 -18 -19 29 -21 24 22 -24 -25 -26 26 27 -29 -30 -31
leaf_value=82.353069012297766 -21.581424742762255 7.7769012713776595 48.743899802712896 20.613012823049971 16.008814357060697 11.893279159158228 12.537100002434304 151.69391025886304 11.5694953858464 10.393222792663927 50.465363030119818 9.272854202775596 8.9768169962098199 193.01140232604729 27.912798273882455 -10.325338730557768 74.894858984956699 60.020340356692216 -7.7392303811886096 290.92111217792217 7.9531077928509211 73.916464137049473 3.6515523785542054 -1.9934419199748648 -2.4380298504445603 7.9247644862177555 7.4935347878949576 -1.601298629466378 182.10845313583104 3.2230626132570617
leaf_weight=547 6719 4878 6118 23940 25977 29774 27501 492 29286 29731 5657 23808 22011 836 7400 18224 2011 1382 18830 52 23498 1496 7616 112479 524447 28048 28104 2554667 126 391234
leaf_count=547 6719 4878 6118 23940 25977 29774 27501 492 29286 29731 5657 23808 22011 836 7400 18224 2011 1382 18830 52 23498 1496 7616 112479 524447 28048 28104 2554667 126 391234
internal_value=0 50.3879 38.4428 -0.165353 2.35459 1.36315 0.811085 60.5366 0.185534 -0.353173 26.3099 -0.933865 -0.752242 150.15 1.64234 2.93373 37.9119 14.0236 2.1642 53.4131 -1.52304 -1.257 15.2727 -3.09956 -1.99228 -1.31421 -1.401 -1.50231 51.4351 2.7195
internal_weight=0 13049 11666 3.94384e+06 745001 715404 689427 6788 658271 630770 29597 601484 3.19884e+06 1383 556897 437699 9411 31156 428288 6296 571753 2.64194e+06 9112 119198 547945 2.63283e+06 2.61082e+06 2.58277e+06 6244 410064
internal_count=3956889 13049 11666 3943840 745001 715404 689427 6788 658271 630770 29597 601484 3198839 1383 556897 437699 9411 31156 428288 6296 571753 2641942 9112 119198 547945 2632830 2610819 2582771 6244 410064
cat_boundaries=0 69 138 218 299 377 460 535 618 624 625 704 786 866 948 1026 1103 1182 1260 1342 1423
cat_threshold=0 0 0 0 0 0 0 0 0 0 0 0 0 0 0 0 0 0 0 0 0 0 0 0 0 0 0 0 0 0 1024 0 0 0 0 0 0 0 0 0 0 0 0 0 0 0 0 0 0 0 0 0 134217728 0 0 0 0 0 0 0 0 0 0 0 0 0 0 0 146 0 0 0 0 0 0 0 0 0 0 0 0 0 0 0 0 0 0 0 0 0 0 0 0 0 0 0 0 0 0 0 0 0 0 0 0 0 0 0 0 0 0 0 0 0 0 0 0 0 0 0 0 0 0 0 0 0 0 0 0 0 0 0 0 0 0 0 0 2 0 0 0 0 524292 33554432 0 16777216 4 0 4194304 0 134217728 268435488 0 0 0 0 0 0 0 0 2147483652 32 0 0 0 0 0 2048 0 0 0 0 0 8 0 0 67108864 1536 0 0 4 0 0 0 134217728 0 0 0 0 0 0 0 512 0 0 0 0 0 0 0 0 8388608 0 0 4194304 43024 16448 0 0 0 0 0 16777216 0 270532608 0 0 1073741824 8388608 0 0 0 0 8 0 0 2048 0 0 0 0 0 0 0 0 0 0 0 131072 0 0 268566528 0 0 0 0 0 0 0 0 33554434 0 1073741824 0 0 536870912 512 0 0 134217856 0 0 8 8 16384 0 0 0 0 0 0 131072 0 0 2684354560 0 8 64 0 268435456 1048576 8192 0 1024 8388612 4096 0 0 0 0 0 536870912 0 2147483648 2048 0 0 0 2147483648 512 0 0 0 0 0 16 0 8224 2147483648 0 16384 0 0 0 0 0 0 0 16384 256 0 0 0 0 0 0 16 32768 0 0 33554944 512 0 0 4 0 134217728 0 16384 512 0 64 16 134217728 0 0 2 536871424 0 0 0 0 0 0 0 0 8388608 8192 0 0 536870912 524288 0 0 524288 0 0 0 0 0 0 0 0 0 16520 0 32 1 0 0 0 0 0 0 0 0 0 32768 0 0 0 32 1048576 4194304 0 65536 0 0 262144 268451848 0 0 0 0 1073741824 134217728 0 262144 0 0 65536 0 0 1610612736 0 0 0 0 0 0 0 262144 131072 1024 0 16 0 268435456 0 32 0 0 0 2097152 0 0 0 0 0 0 0 0 0 2147483648 0 32 0 33554432 1 32 0 262144 0 0 0 0 8448 0 0 256 0 64 0 2147483680 134217728 0 268435456 131200 65536 0 0 6144 0 262144 0 285212672 0 0 131104 0 0 0 0 0 1073741824 0 16384 0 0 0 4194304 0 16777216 0 0 0 0 0 0 0 0 1 0 0 0 0 32768 0 0 131072 0 0 0 268435456 0 0 0 0 0 0 0 0 0 0 2050 0 0 2283929600 0 0 0 0 0 67109376 65536 0 0 0 0 0 0 1 1 0 67108864 0 0 0 0 0 65536 0 0 2097154 0 0 0 0 0 0 16384 0 0 0 0 1048576 2097152 0 0 0 0 0 268435456 0 2147483648 0 0 0 33628672 0 0 0 0 0 805306368 67108992 8388608 2050 0 0 0 0 32768 2 0 0 0 0 0 0 0 0 0 0 0 1073741824 0 0 262208 0 0 0 0 16779264 0 128 131072 131072 1107361792 205848930 262400 2121540744 540672 4160 2658 536870912 0 134217728 16777216 0 0 6 0 4097 0 0 67436544 0 0 0 0 0 67108864 0 0 8 0 0 0 0 0 0 0 0 0 16777216 2072 0 0 0 0 0 75497472 128 0 0 0 16 0 8388608 0 0 0 16384 0 0 0 67108864 0 0 0 67371008 0 16 0 0 0 0 0 65536 0 8 0 0 0 0 0 0 33554432 0 0 0 2048 16384 32 0 4194304 0 0 4194560 270848 0 0 0 201326592 8 0 0 0 2 0 0 0 0 2147483648 0 2097152 0 0 0 0 0 0 0 0 16384 4096 2048 0 0 0 4194304 0 0 0 0 16778240 0 1073741824 0 0 0 268443648 0 0 1024 0 0 262144 0 16 0 16777216 0 0 0 0 0 256 0 0 2147745792 256 0 0 0 0 0 0 0 0 1 0 0 0 65536 0 0 8 0 0 0 0 67108928 0 0 0 4194304 65536 0 1048576 0 8388608 268435457 0 524288 0 0 0 524288 0 67108864 0 0 0 0 0 0 0 0 2048 0 0 0 0 0 0 0 0 0 0 0 0 269484096 4 0 1114112 16384 0 67108864 0 0 0 1 0 0 4 2147483648 0 256 0 2 0 4259840 0 64 0 0 0 0 8 0 0 0 0 5 0 8388608 1024 0 0 0 0 0 0 0 32768 16384 0 0 0 0 0 0 0 0 0 0 0 1024 0 0 0 0 16777216 0 0 0 0 65536 0 8 0 0 8192 0 0 1207959680 16398 0 134217728 0 134217728 0 0 0 0 0 0 0 0 16 0 0 10 0 8 0 0 0 0 2 0 0 0 0 0 0 0 0 0 0 0 0 0 0 0 805306368 536870912 0 134217728 16777216 0 0 4 16777216 4096 0 0 0 134217728 268435488 0 0 0 0 0 0 0 0 0 0 0 0 0 0 0 0 0 2068 0 0 0 0 0 8388608 128 0 0 0 0 0 0 0 0 0 0 0 0 0 0 0 0 0 0 0 16 0 0 0 0 0 65536 0 0 32769 16448 0 0 0 0 0 0 0 0 1 0 0 1024 268435456 0 1024 0 16384 0 0 0 0 1073741824 524288 0 0 8192 167772160 0 0 8192 4 0 0 67108864 0 4194304 262144 0 0 0 0 0 0 0 536872960 0 0 0 0 0 0 8 0 0 0 0 131072 0 1048576 2097152 536870976 2149580800 0 541065216 0 0 0 0 0 0 0 0 536870920 0 0 0 536870944 0 0 0 0 0 0 0 0 4194305 0 0 0 65536 0 2097152 0 0 0 0 0 0 16 524288 0 0 1073741824 536870912 1024 0 0 0 0 16 0 0 0 0 0 67108864 0 0 4 0 4096 0 0 0 0 67584 34078720 0 0 0 0 134217728 67110912 8192 0 0 0 0 2148007936 0 0 0 0 393220 0 0 0 524416 536870912 1048578 0 0 0 0 0 0 0 2048 0 0 4194304 0 0 0 32 0 0 0 268435456 33554432 0 0 0 0 0 512 0 0 0 1073741825 1048576 0 268443648 0 0 0 262144 134217744 0 0 0 0 0 0 0 0 0 0 0 0 0 0 0 268435456 131072 73730 0 0 0 0 1024 64 0 0 0 0 0 0 0 0 0 0 16779264 0 0 0 65536 16777472 0 0 16384 0 0 0 0 0 570425344 0 128 2147500032 8388608 4 524288 0 0 0 0 256 0 0 0 0 32784 192 4227072 0 32768 0 0 0 0 0 0 0 0 0 0 0 0 1024 0 0 8 0 0 0 0 0 0 0 0 0 2148007938 32 8 0 2281701376 1024 513 0 0 256 8 128 0 0 0 0 0 0 67108896 0 0 0 33554432 64 2097152 0 0 0 0 0 2147483648 0 0 4 0 0 0 8388608 0 0 0 0 32 268435456 16777220 0 0 0 0 0 0 0 0 2097152 0 0 0 0 0 0 0 1073741824 0 134217728 0 0 0 0 0 0 0 0 0 0 1024 134217728 256 8388608 0 0 17301504 0 0 0 0 270336 4096 0 0 0 0 1048576 0 0 0 131072 2281701376 268435456 0 16777216 0 524288 262656 0 0 0 0 8 134217728 0 0 0 134217728 0 16 262144 0 0 0 0 67108864 0 0 262144
is_linear=0
shrinkage=0.2


Tree=14
num_leaves=31
num_cat=17
split_feature=17 2 6 17 17 27 35 28 4 17 17 2 35 2 26 17 17 17 2 20 1 17 6 17 4 17 12 4 17 17
split_gain=5.58562e+08 2.44699e+08 1.75163e+08 1.42803e+08 1.33601e+08 1.24443e+08 1.18761e+08 1.142e+08 1.08792e+08 1.97284e+08 1.13097e+08 1.1531e+08 9.04294e+07 9.74011e+07 8.98321e+07 1.30104e+08 1.21171e+08 9.42249e+07 8.62839e+07 8.2429e+07 8.1713e+07 7.91954e+07 7.8764e+07 7.49298e+07 7.42964e+07 7.38473e+07 7.03956e+07 7.11262e+07 6.94283e+07 6.89555e+07
threshold=0 6287.5000000000009 0.06191 1 2 3 82.500000000000014 50.500000000000007 0.022360000000000001 4 5 6812.5000000000009 74.500000000000014 7934.0000000000009 6 7 8 9 10822.000000000002 10 11 12 0.58662000000000003 13 0.31789000000000006 14 1.0000000180025095e-35 0.21288000000000004 15 16
decision_type=9 2 2 9 9 1 2 2 2 9 9 2 2 2 1 9 9 9 2 9 1 9 2 9 2 9 2 2 9 9
left_child=1 -1 3 12 22 6 -3 26 14 -10 -11 -12 13 -2 17 20 -17 -5 24 21 -16 -13 -4 -18 -14 -25 27 -8 -27 -30
right_child=2 5 4 8 -6 -7 7 -9 9 10 11 19 18 -15 15 16 23 -19 -20 -21 -22 -23 -24 25 -26 28 -28 -29 29 -31
leaf_value=24.270812941096025 22.605169253145387 23.172240189454403 53.155172012193091 16.394523527525845 11.877597360751238 60.923466452026041 141.02413546989612 496.22989243098664 43.586295846351099 -28.559198707960022 0.84513571146057831 -20.989405468174478 4.0593978153101 90.210709533406003 34.119261626443731 -34.842265211435858 10.635135152090248 -1.8770393545737099 79.209288881808945 1.1217433938944941 7.9875836137661445 23.576200603946688 254.27515945434573 9.7241734009412024 79.052914878559818 8.9296434213772553 452.04465524554257 435.22564158720127 8.4180661799620005 -0.38117215149699174
leaf_weight=4448 7086 263 2952 11368 13618 1749 989 42 5147 4196 89986 1705 29680 969 6297 3951 27024 1454139 647 13271 19947 23688 80 31063 538 33573 32 34 36219 2132188
leaf_count=4448 7086 263 2952 11368 13618 1749 989 42 5147 4196 89986 1705 29680 969 6297 3951 27024 1454139 647 13271 19947 23688 80 31063 538 33573 32 34 36219 2132188
internal_value=0 54.2874 -0.102619 -0.189286 20.3678 97.4063 142.826 172.815 -0.309792 5.20544 3.71485 4.76963 11.8638 30.738 -0.512431 0.270005 0.107678 -1.7352 6.9419 13.9047 14.2682 20.5768 58.2696 0.168931 5.39458 0.0422234 159.939 150.802 -0.094402 -0.23416
internal_weight=0 7557 3.94933e+06 3.93268e+06 16650 3109 1360 1097 3.89376e+06 137993 132846 128650 38920 8055 3.75577e+06 2.29026e+06 2.26402e+06 1.46551e+06 30865 38664 26244 25393 3032 2.26007e+06 30218 2.23304e+06 1055 1023 2.20198e+06 2.16841e+06
